{"blocks":[{"conv":{"weight":[0.8453920483589172,0.0068073212169110775,0.13563357293605804,-0.23718072474002838,0.08618763089179993,-0.033724844455718994,-0.27764075994491577,0.15668608248233795,-0.387903094291687,0.0480203814804554,0.06800276041030884,0.32185712456703186,0.388994425535202,0.29733431339263916,0.28220170736312866,0.34160110354423523,0.2707931101322174,0.5321462750434875,0.49943459033966064,0.47785452008247375,-0.26861825585365295,-0.2685319185256958,0.0033500187564641237,-0.2570754885673523,-0.040250249207019806,-0.26877138018608093,-0.31695565581321716,0.13695034384727478,0.15395300090312958,0.19402575492858887,-0.7857636213302612,-0.284352570772171,-0.48556071519851685,0.16545672714710236,0.3338099420070648,0.09209272265434265,0.5202460289001465,0.02467525191605091,-0.287189245223999,0.20234179496765137,0.12334588170051575,0.17475789785385132,0.19079403579235077,0.1844339817762375,-0.625464141368866,-0.012317245826125145,0.07340022921562195,0.47415998578071594,-0.12921172380447388,-0.1119416132569313,-0.41536498069763184,-0.4884156882762909,0.5167801380157471,0.05412521958351135,0.15289613604545593,-0.8591176867485046,0.1610838919878006,0.15184946358203888,0.006847549695521593,0.1548503041267395,0.15927302837371826,0.15369249880313873,0.1536416858434677,0.6094757318496704,0.6129806637763977,-0.16269990801811218,-0.16693115234375,-0.14754469692707062,-0.1807960718870163,-0.17281821370124817,-0.08974836021661758,-0.1551547646522522,-0.41111060976982117,-0.42091619968414307,0.21751773357391357,0.1618918776512146,0.08722244948148727,0.2364376038312912,0.1593906581401825,0.23510441184043884,0.22236838936805725,0.18226434290409088,0.2129737138748169,-0.9064865112304688,0.1536150425672531,-0.03490886464715004,0.17947030067443848,0.16553154587745667,0.0955246239900589,0.153109610080719,0.35956841707229614,-0.2838374376296997,-0.23512893915176392,-0.2061316817998886,0.36163458228111267,-0.23162326216697693,-0.1994311362504959,0.3510875999927521,0.35447534918785095,-0.29685118794441223,-0.3733215928077698,0.12657161056995392,0.28912800550460815,-0.2815852165222168,-0.35183969140052795,-0.45457515120506287,0.22661685943603516,0.147920623421669,-0.5554512739181519,0.14002640545368195,-0.29963022470474243,0.2623806297779083,0.0019376090494915843,0.21843409538269043,0.0794815719127655,0.21387137472629547,0.13962572813034058,0.2530708312988281,-1.0240017175674438,0.17635172605514526,-0.044365402311086655,-0.006310414522886276,0.18811284005641937,-0.3379348814487457,-0.18987834453582764,0.057662807404994965,-0.4726261794567108,0.2801463305950165,0.24637460708618164,-0.410148948431015,0.0839691162109375,0.21379102766513824,-0.38386693596839905,0.18120338022708893,-0.4001119136810303,-0.029021307826042175,-0.5320286154747009,-0.1059647649526596,0.2229582518339157,0.23684294521808624,-0.10007870197296143,0.654772937297821,-0.07988623529672623,0.1554139256477356,0.10416442900896072,0.00954284518957138,-0.07242538779973984,-0.24485307931900024,0.21041201055049896,-0.040272653102874756,0.4291698932647705,-0.683282732963562,0.14454443752765656,-0.2801879644393921,-0.09694923460483551,-0.05720021575689316,0.6010447144508362,-0.13766875863075256,0.335552841424942,0.0922636091709137,-0.13072672486305237,-0.11868780106306076,-0.3869524598121643,0.24071268737316132,0.22001616656780243,0.18018582463264465,0.017463665455579758,0.19322356581687927,-0.37863969802856445,-0.4074309468269348,-0.37362000346183777,0.29687565565109253,-0.25338396430015564,0.326238214969635,0.29573890566825867,-0.07970888912677765,-0.26157137751579285,-0.25470981001853943,-0.29370689392089844,0.3231854736804962,0.2248094379901886,0.19417892396450043,0.22214695811271667,-0.47316235303878784,0.1424873173236847,0.215894877910614,-0.6407878398895264,0.23730133473873138,0.21190445125102997,-0.14172926545143127,0.34496259689331055,0.1298399418592453,0.04020259529352188,-0.1578153669834137,0.6328561305999756,-0.2924653887748718,-0.27397891879081726,-0.12305685132741928,-0.14383965730667114,-0.4321553707122803,-0.34345853328704834,-0.4610104262828827,0.1026606634259224,-0.3063671588897705,0.07967884838581085,-0.39311477541923523,-0.29165318608283997,0.20596177875995636,0.23778174817562103,0.27573955059051514,0.17089854180812836,-0.5713292956352234,0.22129753232002258,-0.2433607429265976,0.22875040769577026,0.2485242635011673,-0.1648482233285904,-0.18534214794635773,0.6450246572494507,-0.16697509586811066,-0.16836859285831451,-0.17471253871917725,-0.1699530929327011,-0.16852279007434845,-0.1857423186302185,-0.14977304637432098,0.5192592144012451,0.51486736536026,-0.15499761700630188,-0.07349336892366409,-0.15773369371891022,-0.15961726009845734,-0.15484820306301117,-0.16730256378650665,-0.06562025845050812,-0.3164452314376831,0.5680267810821533,0.1350911408662796,0.41641852259635925,-0.30849769711494446,0.12406083941459656,-0.45523950457572937,0.0546102337539196,-0.37996023893356323,0.2080688327550888,0.31159430742263794,-0.42094922065734863,0.07375305891036987,-0.3757009208202362,0.253078430891037,0.22209756076335907,-0.4228810667991638,-0.2786306142807007,-0.28295454382896423,-0.17706957459449768,0.298284113407135,-0.2701101303100586,-0.6073110699653625,0.16977256536483765,-0.306698203086853,-0.26544710993766785,-0.11859869211912155,-0.5535137057304382,-0.12313944846391678,-0.1452208012342453,-0.08715776354074478,0.5028377175331116,-0.066178098320961,0.21614970266819,-0.19945020973682404,0.20634286105632782,0.18738409876823425,-0.4642622470855713,-0.49834778904914856,-0.007934696972370148,0.22699736058712006,0.2106631100177765,0.17965582013130188,0.26284992694854736,0.23709198832511902,-0.4435224235057831,-0.4754296541213989,-0.4452594518661499,0.16309930384159088,0.23226261138916016,0.22664283215999603,0.22411459684371948,0.2332502156496048,0.22534893453121185,-0.10507364571094513,0.2083253115415573,-0.6936670541763306,-0.016264908015727997,0.19381770491600037,0.21208500862121582,0.20854833722114563,0.20823624730110168,0.16004696488380432,-0.04294104129076004,0.04369032010436058,0.07053487002849579,-0.22901763021945953,0.3733731806278229,0.3156682848930359,-0.47385135293006897,-0.6193973422050476,-0.2547886073589325,0.4169113337993622,-0.05163363739848137,-0.11417603492736816,0.0898764356970787,-0.5299451351165771,-0.2598439157009125,-0.43319836258888245,-0.11207518726587296,0.13763535022735596,0.16735796630382538,0.05784347280859947,0.18554463982582092,0.13478048145771027,-0.8097254633903503,0.07576540112495422,0.0755886361002922,0.0938742533326149,-0.25200310349464417,0.4214131236076355,0.4361102879047394,0.439394474029541,-0.08988459408283234,-0.27818360924720764,-0.25987571477890015,0.27031397819519043,-0.3256045877933502,0.38281306624412537,0.36217746138572693,0.05799859017133713,-0.2935725450515747,0.03170290216803551,0.3383665978908539,0.34247636795043945,-0.31032148003578186,-0.3928195834159851,0.33333471417427063,0.2917494773864746,0.33049896359443665,-0.34462568163871765,0.06555787473917007,-0.3110084533691406,-0.3554735481739044,0.3060012459754944,-0.35910794138908386,0.3290911018848419,0.2862756848335266,-0.29164794087409973,0.3476227819919586,0.306529700756073,-0.2769288718700409,-0.26301681995391846,-0.22630828619003296,0.3123580813407898,-0.39803653955459595,0.19853535294532776,-0.36004796624183655,-0.4026642143726349,0.1250821053981781,0.2536793053150177,-0.39447587728500366,0.2515729069709778,0.2671581506729126,-0.037807971239089966,0.22733134031295776,0.2603360414505005,0.27451786398887634,0.24301442503929138,0.28010714054107666,0.23747368156909943,0.3040981590747833,-0.4670206308364868,-0.32449665665626526,0.39434507489204407,-0.2601145803928375,0.40764471888542175,0.3875008225440979,0.33893221616744995,-0.25253260135650635,-0.3015517294406891,-0.2710056006908417,0.2162497490644455,0.22841066122055054,0.21666400134563446,-0.34093281626701355,-0.350411593914032,0.2259850651025772,-0.3655487596988678,0.24898205697536469,0.2297605276107788,0.16673807799816132,-0.45373162627220154,-0.47901761531829834,0.17255228757858276,0.11246514320373535,-0.4495660960674286,0.13485662639141083,-0.44054698944091797,0.1685454249382019,-0.19388829171657562,-0.22718271613121033,-0.12435039132833481,-0.5081425309181213,-0.6839491724967957,-0.04551083222031593,0.03527868166565895,-0.24823221564292908,-0.3193609416484833,0.4425579309463501,-0.1909138262271881,-0.16174665093421936,-0.21437174081802368,-0.19574113190174103,-0.2410736382007599,-0.19642087817192078,-0.21047283709049225,0.5641343593597412,0.20672588050365448,0.34932032227516174,-0.29861024022102356,0.1374012529850006,0.16183850169181824,0.24630731344223022,0.1625228226184845,-0.5484305620193481,0.16188496351242065],"bias":[-0.4181685149669647,-0.43105366826057434,-0.05963130667805672,0.17002129554748535,0.6432854533195496,0.5964878797531128,-0.001986257266253233,0.2582249045372009,0.48360100388526917,0.31903114914894104,-0.05724994093179703,0.07141369581222534,0.21585023403167725,0.0934174582362175,0.09705746173858643,-0.33963748812675476,-0.6386628746986389,-0.02364175021648407,-0.05556409806013107,-0.10248839110136032,-0.4228302836418152,-0.12800179421901703,-0.0005418075597845018,0.12400325387716293,-0.477245032787323,0.25916779041290283,-0.03814475238323212,0.1418435424566269,-0.038314152508974075,-0.2804783880710602,0.41213998198509216,-0.20003844797611237,-0.5541843771934509,0.32229042053222656,0.0716886967420578,-0.10883022844791412,0.5477421283721924,-0.1185760647058487,0.10844812542200089,0.24089689552783966,-0.1466047763824463,0.13573598861694336,-0.3511875569820404,-0.14753958582878113,0.3419785499572754,-0.20250697433948517,0.3273887634277344,0.5662240982055664],"shape":[48,1,3,3],"padding":1},"bn":{"weight":[0.7216931581497192,1.1550825834274292,0.8820518851280212,0.5801830887794495,0.8659507632255554,0.6494428515434265,1.1720091104507446,0.7592484951019287,1.0716042518615723,1.1407541036605835,0.7429807782173157,0.6172733902931213,0.559837818145752,0.8257887959480286,1.1994837522506714,0.8025036454200745,0.847247302532196,0.6833447217941284,0.8407300114631653,0.7171984910964966,1.173255205154419,0.6615369319915771,0.796169102191925,1.0493799448013306,0.7801621556282043,1.3189432621002197,0.6240366101264954,0.9133409857749939,0.8610984086990356,0.848700225353241,0.9072065353393555,1.0426318645477295,1.3664294481277466,0.6593629717826843,1.0724852085113525,1.091963291168213,1.1134843826293945,0.9288521409034729,0.8760284781455994,0.7155677676200867,0.9954447746276855,0.9734432101249695,0.8238703012466431,0.8693332672119141,0.9730783104896545,0.665199875831604,0.699371337890625,0.9616654515266418],"bias":[-0.35660359263420105,-0.09344527125358582,-0.3386983573436737,0.011201763525605202,-0.1684236377477646,-0.29253721237182617,-1.1497944593429565,-0.3902748227119446,-0.15765376389026642,-0.9050433039665222,-0.09960412234067917,0.061366550624370575,0.07675787806510925,-0.04976680129766464,-0.26349973678588867,0.06114795058965683,-0.03654862195253372,-0.08460510522127151,-0.05195799842476845,-0.0807776004076004,-0.6432755589485168,-0.20862020552158356,-0.5784125924110413,-0.22935041785240173,0.269356369972229,-0.7927376627922058,-0.27517402172088623,-0.03616316244006157,-0.19531577825546265,-0.10144782066345215,-0.10958769917488098,-0.13319748640060425,-0.4891425669193268,-0.026417525485157967,-0.5120095014572144,-0.45867735147476196,-0.08248085528612137,-0.5405363440513611,0.022172560915350914,-0.2305741310119629,-0.12932167947292328,-0.29264941811561584,-0.16057990491390228,0.051178645342588425,-0.21204911172389984,0.03791995346546173,0.29149946570396423,-0.19536131620407104],"mean":[-0.27602097392082214,0.8199719786643982,-0.2767982482910156,-0.08032659441232681,0.9026284217834473,0.571852445602417,0.10325001925230026,0.3261640667915344,0.7254078984260559,0.42349106073379517,0.07999918609857559,-0.4058625102043152,0.3226611912250519,-0.3699053227901459,-0.21239791810512543,-0.13546282052993774,-0.7162511348724365,0.08159803599119186,-0.3850163519382477,-0.06421422213315964,-0.2545919418334961,-0.04548024386167526,-1.075508713722229,0.4941105246543884,-0.8505988121032715,0.26544490456581116,0.035338856279850006,-0.11635538935661316,-0.8875448107719421,-0.5591258406639099,0.5595061779022217,-0.22490236163139343,-0.34751415252685547,0.11973323673009872,-0.5346675515174866,-0.05227988585829735,0.7367064356803894,0.13219024240970612,0.08810054510831833,0.5027841329574585,-0.35975590348243713,0.7958927154541016,-0.267282098531723,-0.004891841672360897,-0.18594148755073547,-1.3530166149139404,0.11522068828344345,0.8551537394523621],"var":[0.18451422452926636,0.6576381325721741,0.16796991229057312,0.21450021862983704,0.1778174489736557,0.15662913024425507,0.15861301124095917,0.16355572640895844,0.12780193984508514,0.17304114997386932,0.13356104493141174,0.20479753613471985,0.10607807338237762,0.287823885679245,0.1947682648897171,0.1682528853416443,0.12983033061027527,0.1073267012834549,0.17257322371006012,0.11205433309078217,0.17464222013950348,0.13558070361614227,0.5207579135894775,0.17543119192123413,0.15323777496814728,0.12215601652860641,0.15444906055927277,0.1684396117925644,0.38712698221206665,0.14533066749572754,0.1285013109445572,0.15515221655368805,0.1433289647102356,0.17063161730766296,0.2581378221511841,0.13449351489543915,0.16803321242332458,0.16442787647247314,0.15178601443767548,0.1501266211271286,0.1677374541759491,0.24976758658885956,0.16761523485183716,0.1272806078195572,0.25172072649002075,0.5817832350730896,0.14065824449062347,0.14375552535057068],"eps":1e-05}},{"conv":{"weight":[0.133153036236763,-0.07889589667320251,-0.18223373591899872,0.12323012948036194,0.027817053720355034,0.020436642691493034,-0.3485555946826935,-0.2641145884990692,0.30455440282821655,0.30572235584259033,0.03489485755562782,-0.2227926254272461,-0.16527830064296722,-0.17031621932983398,-0.08345364034175873,0.19964802265167236,0.5567333102226257,-0.315609335899353,-0.028594231233000755,0.4235278069972992,0.39075806736946106,-0.0054795811884105206,0.23009046912193298,0.3133031725883484,-0.020974110811948776,0.013188974931836128,0.11512982845306396,0.1617824137210846,-0.28576019406318665,0.17479638755321503,0.1395275890827179,0.08974774181842804,-0.5097551345825195,-0.24410273134708405,0.04788821563124657,-0.25041699409484863,0.17483100295066833,0.23854780197143555,0.08925230801105499,-0.003190746298059821,0.018386367708444595,0.04567243531346321,0.47254303097724915,0.420329749584198,-0.1785067319869995,0.3987521529197693,0.12335099279880524,-0.20873185992240906,-0.20734818279743195,0.047936856746673584,-0.17733193933963776,-0.21238672733306885,0.3667174279689789,-0.14099308848381042,-0.2510708272457123,0.06290484219789505,0.15811112523078918,0.5145853161811829,0.30404767394065857,0.15325427055358887,0.12499754875898361,0.1176210567355156,-0.026557523757219315,0.12460065633058548,-0.29601919651031494,0.250888466835022,0.1720275580883026,0.26223352551460266,-0.07416999340057373,-0.09870126843452454,0.3819809854030609,0.2813970446586609,-0.3936293423175812,0.017506418749690056,0.05357566103339195,0.05700696259737015,0.4350278675556183,0.1578628122806549,0.20592735707759857,0.3597128689289093,0.44626012444496155,0.04824448749423027,-0.10464318841695786,0.20424111187458038,0.30442681908607483,-0.29180145263671875,0.19419527053833008,-0.12580351531505585,0.060918066650629044,-0.13838137686252594,0.19688104093074799,-0.31793609261512756,0.2668378949165344,0.15049724280834198,0.057702671736478806,0.22831764817237854,0.027129799127578735,-0.18877875804901123,0.047646213322877884,-0.10472647845745087,0.16913045942783356,-0.10244251787662506,-1.835411787033081,-0.18071702122688293,0.2388990819454193,-0.642857551574707,0.09435074776411057,0.06346172839403152,0.06463850289583206,0.056693561375141144,-0.011799952015280724,0.18435990810394287,-0.0679684728384018,-0.1661679744720459,0.1430673748254776,0.03451915085315704,0.1875220090150833,-0.04055444523692131,-0.027369985356926918,0.12815620005130768,-0.20459948480129242,-0.5784854292869568,0.1265580654144287,0.18049384653568268,-0.021321265026926994,0.1628972589969635,0.09228438884019852,-0.1950920820236206,0.0975436344742775,0.13873331248760223,-0.006878954358398914,-0.053300339728593826,0.1520080268383026,-0.05648687854409218,0.15231865644454956,-0.16124023497104645,0.013228318654000759,-0.20988474786281586,0.07871516793966293,-0.23661893606185913,0.11562314629554749,0.09031795710325241,0.27852126955986023,0.23841015994548798,0.052435945719480515,-0.29425695538520813,-0.09575678408145905,0.1333877593278885,0.1907358169555664,-0.20929469168186188,0.3624958395957947,-0.05896507948637009,-0.8302493691444397,0.005820304621011019,0.1263592392206192,0.19249841570854187,-0.26451754570007324,-0.23479576408863068,0.3463912308216095,0.11217455565929413,0.024758504703640938,0.462597131729126,0.06783745437860489,0.04889898747205734,0.33552178740501404,-0.054643984884023666,-0.07428598403930664,-0.06638533622026443,0.04905950278043747,-0.16484960913658142,-0.7066606283187866,-0.21859589219093323,0.16819614171981812,0.20888711512088776,-0.32584720849990845,-0.029751311987638474,0.2611428201198578,-0.20914235711097717,-0.08716151118278503,-0.3209972679615021,-0.000964962353464216,0.19187167286872864,0.15416868031024933,-0.37464818358421326,0.0741347149014473,0.14137254655361176,-0.26502081751823425,-0.10490593314170837,0.3506940007209778,-0.27046340703964233,0.4442517161369324,0.1905316263437271,0.14711086452007294,-0.019867055118083954,-0.12118135392665863,0.45723527669906616,0.14759144186973572,-0.42649713158607483,-1.1466058492660522,-0.47236117720603943,0.19985386729240417,-0.02841046079993248,-0.045207489281892776,0.13439472019672394,0.21422447264194489,0.263237327337265,0.0484890453517437,-0.0655684620141983,-0.11162884533405304,-0.17124465107917786,0.22085295617580414,-0.26627907156944275,0.34572696685791016,-0.26322072744369507,0.13811077177524567,0.18265819549560547,-0.005557673517614603,0.058696847409009933,-0.03927091136574745,0.2132551372051239,-0.340736448764801,0.13071081042289734,0.2926234304904938,0.18852899968624115,-0.8205329179763794,0.17571969330310822,0.0014651456149294972,0.25779587030410767,0.05416785925626755,0.4028164744377136,-0.029695183038711548,0.4849378168582916,0.03140662610530853,-0.06741412729024887,0.12705837190151215,-0.08884900063276291,0.22440287470817566,0.039003558456897736,-0.04842988774180412,0.01950744353234768,-0.13498784601688385,0.01662328839302063,-0.02322196401655674,-0.012482515536248684,-0.07474162429571152,0.07157982885837555,0.17335112392902374,0.22592777013778687,-0.3106914460659027,-0.3337065279483795,-0.3055499196052551,0.5871456265449524,0.4865182340145111,0.1558169275522232,-0.014237498864531517,-0.17499510943889618,-0.005765364971011877,0.01794365793466568,-0.059914834797382355,-0.2875027656555176,0.01793857291340828,0.3332649767398834,0.2630363404750824,-0.5140883326530457,0.06831702589988708,0.09745513647794724,-0.10872810333967209,0.0112631069496274,-0.12000813335180283,-0.17809182405471802,0.2854611873626709,0.3228273093700409,-0.13104332983493805,0.26410341262817383,0.1755356341600418,-0.1301841288805008,-0.1052476093173027,-0.48917847871780396,-0.07508315145969391,0.36636313796043396,-0.9901947975158691,0.18607069551944733,-0.32119834423065186,0.255255788564682,0.09283456951379776,-0.0014972039498388767,-0.12565480172634125,-0.1590747833251953,-0.04504186660051346,0.18281936645507812,-0.126247376203537,0.017812583595514297,-0.15299727022647858,-0.07640910893678665,-0.3333621025085449,0.21542711555957794,-0.17557910084724426,0.07862531393766403,0.1523221731185913,-0.13221633434295654,0.031150851398706436,-0.09711379557847977,0.2917936146259308,0.05317029729485512,-0.0038009611889719963,0.242585226893425,0.09810283780097961,-0.050518520176410675,-0.35708004236221313,-0.15474940836429596,-0.1591338962316513,-0.016485432162880898,0.10166095942258835,-1.0998538732528687,0.22801998257637024,-0.3217093348503113,0.1681944727897644,0.05893717706203461,-0.3445800244808197,0.13250748813152313,-0.19070163369178772,0.3047810196876526,0.051778193563222885,0.08888430148363113,-0.8835999369621277,-0.10275673121213913,-0.23832295835018158,-0.02283075824379921,-0.1639169305562973,-0.05180353298783302,0.011019540950655937,-0.016507841646671295,0.5294023156166077,-0.17032822966575623,0.20335373282432556,0.1756807565689087,0.18330198526382446,0.5109352469444275,0.0960136353969574,-0.06424828618764877,-0.21580128371715546,-0.06879410892724991,0.027134496718645096,0.39579179883003235,0.21132098138332367,-0.019055116921663284,-0.39223095774650574,-0.16806140542030334,0.04807814210653305,0.23890669643878937,0.21660050749778748,-0.49442803859710693,0.16004934906959534,0.24882227182388306,0.015451043844223022,0.07278461754322052,0.2012607455253601,0.49609091877937317,0.21482256054878235,0.22088883817195892,-0.29293152689933777,0.29494720697402954,0.03221189230680466,-0.11379863321781158,-0.057495202869176865,0.14280535280704498,-0.1254499852657318,0.06095258146524429,0.29030653834342957,-0.060764916241168976,-0.30296790599823,0.029666738584637642,-0.10101986676454544,0.2195347547531128,-0.21421337127685547,-0.4055638015270233,0.05462680011987686,0.1789713054895401,0.07082170993089676,-0.09226909279823303,-0.2848798632621765,0.03836775943636894,-0.14411675930023193,-0.008107524365186691,0.07514353841543198,0.10420258343219757,0.25692254304885864,0.5078556537628174,0.11773572862148285,-0.19427186250686646,-0.203782320022583,-0.2077503353357315,0.13384763896465302,-0.18811169266700745,-0.05666852369904518,-0.40583351254463196,-0.12143407762050629,-0.029200324788689613,-0.09726805239915848,0.1921677589416504,0.1152292937040329,0.2312629222869873,0.19148895144462585,0.19325046241283417,-0.057453453540802,0.36091697216033936,-0.3313807249069214,0.0717640146613121,-0.09480322152376175,-0.16450393199920654,0.5783159732818604,0.12250813096761703,0.02079302817583084,0.3580562174320221,0.4400936961174011,-0.40329527854919434,0.06179846450686455,0.14033184945583344,0.30599305033683777,0.6253644824028015,0.23131489753723145,0.3035665452480316,0.22801119089126587,-0.18177036941051483,0.0521339550614357,0.13760679960250854,-0.2667285203933716,-0.40079399943351746,0.2697601616382599,-0.1180339977145195,0.22089596092700958,-0.02035973034799099,0.1444644331932068,0.014342975802719593,-0.16717033088207245,0.4061465561389923,0.2195243388414383,-0.1339264065027237,-0.3854758143424988,0.09910443425178528,0.1965700089931488,0.13435354828834534,-0.035618335008621216,-0.13258466124534607,0.1543770283460617,-0.0058205206878483295,0.21722851693630219,0.039114005863666534,0.2505837082862854,0.2249748557806015,0.32840898633003235,0.14406169950962067,0.19664804637432098,0.16886188089847565,0.11489693075418472,0.05217650160193443,-0.16453100740909576,0.05639522895216942,-0.10261319577693939,0.32856643199920654,0.26195019483566284,-0.1446790248155594,0.2819448411464691,0.022018255665898323,-1.3238987922668457,0.061114244163036346,0.5500941872596741,0.07063896954059601,-0.022403160110116005,0.1853710263967514,0.151170551776886,0.09632671624422073,0.009951208718121052,-0.31852906942367554,0.10552477091550827,0.09324058890342712,0.2687470614910126,0.15635590255260468,0.31676870584487915,-0.14865915477275848,0.1671447604894638,-0.21098236739635468,-0.1827041655778885,0.030322251841425896,0.06940826773643494,0.35821545124053955,-1.299031138420105,0.1837548315525055,0.18356287479400635,0.2789788246154785,0.36505112051963806,0.3747648298740387,0.02903052046895027,-0.22987809777259827,0.04546670988202095,0.15906527638435364,-0.0870397761464119,0.4689519703388214,-0.09310324490070343,-0.007174589671194553,0.27677780389785767,-0.348421573638916,-0.08319656550884247,0.15037482976913452,0.13558711111545563,0.0675317719578743,0.13915026187896729,-0.15871882438659668,-0.25014615058898926,-0.39970818161964417,0.10886535793542862,-0.03822825103998184,-0.010703511536121368,-0.416014701128006,0.4445318877696991,0.09985057264566422,0.12627515196800232,0.6112982630729675,-0.010326741263270378,-0.23955385386943817,0.1134265661239624,0.36340293288230896,0.18627963960170746,-0.04153115674853325,0.044479839503765106,-0.05194522440433502,0.24055896699428558,-0.029186274856328964,0.27196016907691956,0.5035701990127563,0.1548232138156891,-0.004935826640576124,0.16498088836669922,0.06922052055597305,0.09867928922176361,-0.10145478695631027,-0.09614762663841248,0.2856614887714386,0.14015470445156097,0.14629827439785004,-0.03741459548473358,-0.06359447538852692,0.09976974874734879,0.11644178628921509,0.010873503983020782,-0.09965809434652328,-0.12995275855064392,0.10851728916168213,0.5770958662033081,0.17686201632022858,0.017187228426337242,0.3971237242221832,-0.04785226657986641,0.1774442344903946,0.22124187648296356,-0.30754998326301575,0.047933243215084076,0.17518973350524902,-0.26057422161102295,0.0492648184299469,-0.04391064867377281,-0.08056585490703583,-0.19790078699588776,0.05576750636100769,0.3081727921962738,0.004625742323696613,-0.0015550082316622138,0.029458029195666313,0.283250629901886,0.3090967535972595,0.2635396122932434,-0.14742575585842133,0.008862013928592205,-0.01465037651360035,0.1896056979894638,0.1162404865026474,0.2521638870239258,-0.17505137622356415,0.12794868648052216,-0.0702950730919838,0.0304756760597229,0.04652588069438934,0.1957104355096817,-0.049788255244493484,-0.05057750642299652,-0.6986949443817139,-0.18057453632354736,0.15698157250881195,0.21400922536849976,-0.28945237398147583,-1.221803069114685,-0.27249792218208313,0.15532082319259644,-0.08618634939193726,0.20797014236450195,0.2906309962272644,-0.10186813026666641,0.3286919891834259,-0.1595090925693512,-0.13299165666103363,0.20279301702976227,0.1593056172132492,0.25594180822372437,-0.01741129718720913,0.15955224633216858,-0.08420372754335403,0.268311083316803,0.16826842725276947,-0.2324853241443634,-0.019868802279233932,-0.07787595689296722,-0.03971044346690178,-0.28169193863868713,-0.004770771600306034,-0.292593389749527,0.0444529689848423,-0.022275708615779877,-0.016391756013035774,0.1855289787054062,-0.02194451354444027,-0.3792330026626587,-0.040938496589660645,0.04797252640128136,-0.348951131105423,0.5629777908325195,0.4783860743045807,-0.40504804253578186,-0.18988916277885437,-0.11933673173189163,-0.033117011189460754,0.144964337348938,0.08364707976579666,0.15833422541618347,0.23831361532211304,0.3209161162376404,0.07172095030546188,0.23677338659763336,0.1488042175769806,0.205691859126091,-0.05765041708946228,0.2825811505317688,0.12261813133955002,-0.12546654045581818,-0.11429034173488617,-0.05880396068096161,-0.14091283082962036,-0.06262758374214172,0.15261691808700562,-0.19154804944992065,0.1925613135099411,0.16233672201633453,0.3516857624053955,0.2152852863073349,0.12119993567466736,0.3140627145767212,-0.11375667154788971,0.12149618566036224,0.0972796306014061,-0.12165072560310364,0.287191241979599,0.16518519818782806,0.07094140350818634,-0.25357750058174133,-0.20295533537864685,-0.15478475391864777,0.28769662976264954,0.3508954346179962,0.015439298003911972,-0.09127823263406754,0.07930415123701096,0.03476736322045326,0.14113138616085052,0.08862727135419846,0.16898658871650696,0.30115267634391785,-0.15251241624355316,-0.2120215743780136,0.11833346635103226,0.20254740118980408,-0.14129240810871124,-0.02203921042382717,-0.035516876727342606,0.19674961268901825,0.18964752554893494,-0.08781355619430542,0.6125081181526184,0.04977026581764221,-0.10563482344150543,-0.06288741528987885,-0.3715004324913025,0.25541871786117554,-0.14832834899425507,-0.9881783127784729,0.24472038447856903,0.4820292294025421,-0.21385040879249573,-0.17770610749721527,0.03460710495710373,0.01760922744870186,-0.0026808171533048153,-0.1546715945005417,0.236659973859787,0.12995369732379913,0.1687619984149933,0.09814298152923584,-0.48837506771087646,0.4783303141593933,-0.11533185094594955,0.08919287472963333,0.14124369621276855,0.2806609272956848,-0.16633978486061096,0.3054334223270416,-0.1868409812450409,0.03164868429303169,0.07409922033548355,-0.04734788089990616,-0.09203244745731354,-0.1759246438741684,0.07624594122171402,0.3230215311050415,0.09677105396986008,-0.5572102665901184,-0.14700987935066223,0.23595231771469116,0.17416247725486755,0.19507482647895813,0.36492088437080383,0.3926261365413666,0.11888457089662552,0.2613040804862976,-0.057645734399557114,-0.2035716027021408,0.04778594151139259,0.0008579569985158741,-0.054580673575401306,-0.3427504599094391,-0.24419641494750977,0.26074862480163574,0.24220000207424164,0.49959686398506165,0.1303979754447937,-0.4009791314601898,0.17007115483283997,-0.12929053604602814,-0.04153042659163475,0.10542602837085724,0.06004481762647629,-0.05810112506151199,0.4240388572216034,0.06896542012691498,-0.2845292091369629,-0.1809311956167221,-0.10383817553520203,0.2682684063911438,0.18984034657478333,0.1738034188747406,0.49671265482902527,0.2555788457393646,-0.01045683491975069,0.20118528604507446,-0.17697493731975555,0.2637498676776886,-0.30802103877067566,0.1656540036201477,-0.0576314851641655,0.3633289337158203,0.011815279722213745,0.12606239318847656,0.6134735345840454,0.2510029375553131,0.2393275797367096,0.09081225097179413,0.0363648384809494,-0.06263422220945358,0.2079578936100006,-0.13190874457359314,-0.6881362795829773,-0.7088949084281921,0.24413086473941803,-0.08497872948646545,0.12253428995609283,0.061703864485025406,0.18489237129688263,-0.030505836009979248,-0.08976823091506958,0.12255802005529404,-0.14899581670761108,-0.2247324287891388,-0.09166477620601654,0.055680081248283386,0.18901968002319336,0.04230989143252373,-0.11232929676771164,-0.0021678542252629995,0.13636767864227295,0.3538835644721985,0.0946875512599945,0.46446695923805237,0.026731567457318306,-0.19257357716560364,0.0035517443902790546,0.33933544158935547,-0.11742556840181351,-0.07906045019626617,-0.07181776314973831,-0.7305925488471985,0.3047064244747162,0.19185492396354675,-0.045153338462114334,0.18625408411026,-0.1514204889535904,0.15816611051559448,0.26009616255760193,-0.06098148599267006,-0.480875700712204,-0.2493298202753067,0.4886835515499115,0.5230936408042908,0.028351854532957077,-0.2845897972583771,0.054756153374910355,-0.572901725769043,-0.1843695044517517,-0.28847217559814453,-0.09572142362594604,0.22831843793392181,0.19001220166683197,-0.21277986466884613,0.2757907807826996,-0.037613000720739365,0.3953505754470825,-0.1543591469526291,-0.24744457006454468,-0.10971732437610626,0.14081208407878876,-0.02337583899497986,-0.24333372712135315,-0.08737199008464813,0.11428183317184448,-0.12566034495830536,0.21738308668136597,-0.15899431705474854,-0.3947077691555023,0.1260746568441391,0.026327433064579964,-0.06956388056278229,-0.0858396664261818,0.10564377158880234,-0.10006548464298248,-0.07670848816633224,-0.30121785402297974,-0.04305599629878998,-0.23903590440750122,0.03639499098062515,0.05288475751876831,-0.008737010881304741,0.6851165294647217,-0.10925571620464325,-0.16720791161060333,-0.18313802778720856,0.07657109946012497,-0.42047300934791565,0.13065177202224731,0.23993103206157684,0.33230507373809814,-0.12793783843517303,0.14209121465682983,0.055214207619428635,-0.5469698309898376,0.5073434710502625,-0.6746698617935181,0.13973914086818695,0.10111362487077713,0.10636449605226517,-0.13950204849243164,-0.07329970598220825,0.6201159954071045,0.3558957874774933,0.07765903323888779,0.5452849268913269,0.1368570625782013,0.22761154174804688,-0.03522757440805435,-0.041053302586078644,0.5738341212272644,0.13833287358283997,-0.066116563975811,0.3078071177005768,-0.03133784607052803,0.11245608329772949,-0.10687033087015152,-0.022281145676970482,0.12015314400196075,-0.01250737626105547,0.23347759246826172,0.07136241346597672,0.19317784905433655,0.11864258348941803,-0.5829792022705078,-0.17423252761363983,-0.18218444287776947,0.2830444276332855,-0.2595464587211609,-0.13749606907367706,-0.12275873124599457,-0.24471573531627655,0.12676292657852173,0.3246409296989441,0.04022308811545372,-0.04061773419380188,-0.21054990589618683,0.020159229636192322,-0.023312438279390335,-0.09838373959064484,-0.06803564727306366,-0.009205804206430912,-0.2725900411605835,0.12007515132427216,0.1746550053358078,-0.029970450326800346,0.924275815486908,0.20060692727565765,-0.19198016822338104,-0.009691320359706879,-0.0996105968952179,-0.07933192700147629,0.04207729920744896,-0.10413413494825363,0.22946102917194366,-0.2460496723651886,-0.08184078335762024,0.0822368636727333,0.07124721258878708,-0.36382973194122314,0.16356797516345978,0.2344016283750534,-1.1816126108169556,0.1048169955611229,-0.0008893126505427063,0.09454049915075302,0.042872484773397446,0.17392513155937195,0.10098911821842194,-0.0054158098064363,-0.24793127179145813,-0.09872478246688843,0.32515883445739746,0.017468122765421867,0.31314393877983093,-0.205189511179924,0.042384643107652664,0.027133632451295853,-0.10436737537384033,0.278631329536438,-0.07127953320741653,0.04176752641797066,-0.022712726145982742,-0.0019782264716923237,-0.3912574052810669,0.07520360499620438,0.07265259325504303,0.1631542593240738,0.04451560601592064,0.3703305721282959,0.102668397128582,-0.2932533323764801,-0.11094562709331512,0.29500138759613037,0.12049555778503418,0.23142458498477936,-0.0405588299036026,0.18620550632476807,-0.20423251390457153,-0.2682839035987854,0.20440977811813354,0.022215405479073524,0.1295599490404129,-0.5823426842689514,-0.017864642664790154,0.09401001036167145,-0.45775890350341797,0.020169001072645187,0.22149048745632172,0.23678433895111084,0.03855115547776222,0.3836592435836792,0.20904266834259033,0.33119186758995056,0.2535156011581421,0.0018453664379194379,0.07834374904632568,0.3381374180316925,-0.008337403647601604,0.5478823781013489,0.729036271572113,0.4013994038105011,0.19226402044296265,-0.00104828632902354,-0.06699517369270325,0.2887435853481293,0.28601977229118347,0.005692364647984505,0.004967649932950735,-0.09506866335868835,-0.23768410086631775,0.2487964630126953,0.07497493177652359,-1.6195715943467803e-05,-0.22859399020671844,0.2312321960926056,-0.2628897428512573,0.4058299958705902,-0.06897276639938354,-1.0341440439224243,-0.1105792447924614,0.1005597785115242,0.032966796308755875,0.012647372670471668,-0.04837985336780548,0.5579541921615601,-0.2426362782716751,-0.0226577278226614,0.23745732009410858,0.2877889573574066,0.2701157033443451,-0.014196888543665409,-0.10479817539453506,-0.2564268112182617,-0.014129976741969585,0.32597875595092773,0.16442979872226715,-0.028354067355394363,0.2597779929637909,0.06076471507549286,-0.04314051568508148,0.20572632551193237,-0.2501893937587738,0.40725579857826233,-0.5785669684410095,-0.45125237107276917,-0.08992350846529007,0.42335042357444763,0.13786976039409637,0.20636789500713348,-0.22223280370235443,-0.01086126733571291,0.2666582465171814,0.08612194657325745,0.04436200484633446,0.09504900127649307,0.24083970487117767,-0.13657213747501373,0.17613345384597778,0.002682507736608386,0.36431485414505005,-0.5127341151237488,-0.026821142062544823,-0.600348711013794,0.02248552441596985,0.09262002259492874,-0.26758646965026855,-0.13645702600479126,-0.5342148542404175,0.2547680735588074,-0.0383678674697876,0.3432934284210205,0.15593139827251434,-0.11397045850753784,-0.8266732692718506,-0.015567056834697723,0.17960193753242493,-0.08521997183561325,-0.07028791308403015,0.22465063631534576,-0.16155558824539185,-0.09251883625984192,-0.1386033594608307,-0.10274142026901245,0.4100610017776489,-0.10031750053167343,0.15698561072349548,-0.12199266999959946,0.2024349868297577,0.35110583901405334,-0.29888951778411865,0.08458118885755539,-0.32634562253952026,0.23757204413414001,-0.32960838079452515,0.28534191846847534,-0.004595470614731312,0.19688023626804352,0.1362735778093338,-0.3887689709663391,0.1449873298406601,0.16770073771476746,0.3100495934486389,-0.10257722437381744,-0.19622807204723358,-0.021738652139902115,-0.17404043674468994,-0.12717394530773163,0.3332841098308563,0.07173588871955872,-0.15660272538661957,-0.20802393555641174,0.11705487221479416,-0.03998511657118797,-0.11089158803224564,-0.8202574849128723,-0.19898127019405365,0.2392546832561493,0.33972859382629395,0.05888649448752403,-0.16316471993923187,-0.3446709215641022,-0.0074200863018631935,-0.1957610845565796,0.2594318985939026,0.04203706607222557,-0.025993583723902702,0.23613156378269196,0.27796128392219543,0.17003613710403442,0.05662212893366814,-0.2065076231956482,0.018924817442893982,0.46384337544441223,-0.3139520585536957,-0.007921640761196613,0.359934538602829,0.05799117311835289,0.20089074969291687,0.4362216889858246,-1.0434746742248535,-0.4016861617565155,0.052378296852111816,0.0869072750210762,-0.09691095352172852,0.08734461665153503,0.22211699187755585,0.13002651929855347,-0.3560037910938263,0.08903918415307999,-0.32117536664009094,0.12350743263959885,-0.10562381148338318,0.03812113404273987,0.09004266560077667,0.31988653540611267,-0.12498796731233597],"bias":[-0.03988126665353775,0.0848311260342598,-0.10089851915836334,-0.30679336190223694,0.2630913257598877,-0.2291664481163025,0.005527989007532597,0.07544199377298355,-0.059682223945856094,-0.23169229924678802,0.061775870621204376,0.3028114140033722,-0.027230098843574524,0.04935980215668678,0.13545647263526917,-0.31579339504241943,0.12618152797222137,0.26420316100120544,-0.08159422129392624,-0.06389748305082321,-0.17884479463100433,-0.017809459939599037,0.18232351541519165,-0.036267295479774475],"shape":[24,48,1,1],"padding":0},"bn":{"weight":[0.8138962984085083,1.074916958808899,1.6080650091171265,0.38999027013778687,0.8607975840568542,0.8385847806930542,1.0420072078704834,0.4223567247390747,0.7211623191833496,0.8485247492790222,0.44075271487236023,1.199611783027649,1.034935712814331,0.881216287612915,0.7687364220619202,0.7764689922332764,0.8824076652526855,1.089328646659851,0.46063071489334106,1.0875656604766846,0.8584298491477966,0.434283584356308,0.8108972311019897,1.0232090950012207],"bias":[-0.31319430470466614,-0.13301171362400055,-0.20843927562236786,-0.14139144122600555,-0.5587952733039856,-0.30974510312080383,-0.4129433035850525,-0.3916384279727936,-0.17071712017059326,-0.5364797711372375,-0.3162943422794342,-0.517695963382721,-0.4025120139122009,-0.39516279101371765,-0.2456279993057251,-0.06591317802667618,-0.49493682384490967,-0.30659693479537964,-0.4415053129196167,-0.5177669525146484,-0.5721188187599182,0.016652248799800873,0.003419902641326189,-0.2712216079235077],"mean":[0.6166080832481384,1.2339956760406494,-0.078473299741745,-0.37227603793144226,0.6612015962600708,-0.552116334438324,-0.4970400631427765,0.279399573802948,0.83256596326828,0.6032378673553467,0.5659075379371643,1.3402140140533447,-0.801042377948761,1.116921305656433,0.3883967399597168,0.48382022976875305,0.5105822086334229,0.0639471784234047,0.8271082043647766,-0.19741317629814148,1.1962049007415771,0.4254092574119568,-0.045262355357408524,0.08401285111904144],"var":[0.3183279037475586,0.48196014761924744,0.41572853922843933,0.5768447518348694,0.42250674962997437,0.2694968581199646,1.5641974210739136,0.7261660695075989,0.4155731499195099,1.1139612197875977,0.5295289754867554,0.5744814276695251,0.4763997495174408,0.370419979095459,0.4783855378627777,0.4236403703689575,0.634895920753479,0.4444780647754669,1.0753216743469238,0.871496319770813,0.7169841527938843,1.119526982307434,1.033476710319519,0.6424103379249573],"eps":1e-05}},{"conv":{"weight":[0.24955956637859344,0.31228262186050415,0.2756056785583496,0.2771711051464081,0.03632192313671112,0.2383277863264084,0.28033390641212463,0.32338690757751465,0.298962265253067,0.2266853004693985,0.22503526508808136,0.2881813049316406,0.2640949487686157,0.03745969012379646,0.19653035700321198,0.3321593701839447,0.24667997658252716,0.26376208662986755,0.3001706898212433,0.27410969138145447,0.2292320281267166,0.3267926275730133,0.07525652647018433,0.3019307255744934,0.33182382583618164,0.3179521858692169,0.26558157801628113,-0.30380725860595703,-0.48894527554512024,-0.33101513981819153,-0.33915430307388306,0.09449349343776703,-0.18028266727924347,-0.2620469331741333,-0.4419994652271271,-0.27743107080459595,0.08546698838472366,0.4290458858013153,0.22513067722320557,0.22122548520565033,0.080778107047081,0.1497924029827118,0.32172733545303345,0.298446387052536,0.09257448464632034,-0.23975573480129242,-0.2207551896572113,-0.1726870983839035,-0.13515985012054443,0.09926073253154755,-0.15916918218135834,-0.15112094581127167,-0.13178357481956482,-0.15382736921310425,-0.20098692178726196,-0.23882828652858734,-0.27474886178970337,-0.28696978092193604,-0.006037387531250715,-0.3146554231643677,-0.1882128268480301,-0.1732233464717865,-0.20816214382648468,0.08372832834720612,0.12972834706306458,-0.017421795055270195,0.17794384062290192,0.4176027178764343,-0.012430147267878056,0.25587186217308044,0.2549951374530792,0.13740570843219757,0.13219648599624634,0.19917833805084229,0.09519976377487183,0.10552677512168884,-0.13056904077529907,0.09693930298089981,0.15924163162708282,0.17633458971977234,0.2849920094013214,0.4214400351047516,0.4083602726459503,0.3075876832008362,0.3630026578903198,0.1835882067680359,0.23207443952560425,0.3268235921859741,0.3599822223186493,0.2534422278404236,0.040032994002103806,0.08965504169464111,0.22281289100646973,0.16280780732631683,0.06032959744334221,0.14903967082500458,0.24180743098258972,0.1212083101272583,0.0893353521823883,-0.5520631074905396,-0.4716264605522156,-0.4247317612171173,-0.29306021332740784,-0.09446802735328674,-0.4959935247898102,-0.49599790573120117,-0.34633246064186096,-0.41359853744506836,-0.04620642587542534,0.021807324141263962,-0.01538015529513359,-0.07806454598903656,0.26791924238204956,0.0286856759339571,0.04219155013561249,0.13545189797878265,0.03231502324342728,-0.49458077549934387,-0.31537842750549316,-0.5473320484161377,-0.4377485513687134,-0.2547983229160309,-0.502145528793335,-0.34585466980934143,-0.47753942012786865,-0.5491448044776917,0.027983302250504494,-0.013503304682672024,-0.15991467237472534,-0.021802905946969986,0.14730870723724365,-0.15497878193855286,-0.14199425280094147,-0.1588696390390396,-0.24988733232021332,0.10758017748594284,0.26552438735961914,0.1816329061985016,0.1444581001996994,-0.00548870163038373,0.18109659850597382,0.30491185188293457,0.2508794963359833,0.17134690284729004,-0.456473708152771,-0.5023648738861084,-0.6226363182067871,-0.35166096687316895,-0.182233527302742,-0.4637114405632019,-0.5394825339317322,-0.5700463056564331,-0.6495291590690613,-0.23690295219421387,-0.24904988706111908,-0.21661795675754547,-0.1627214550971985,-0.24703237414360046,-0.2555941641330719,-0.12144999206066132,-0.17412230372428894,-0.20882463455200195,0.43210485577583313,0.2907605767250061,0.2916097044944763,0.5210564732551575,0.3122342526912689,0.521128237247467,0.4706093370914459,0.13386116921901703,0.32701119780540466,-0.2261863350868225,-0.1367441564798355,-0.27574801445007324,-0.29292699694633484,-0.06659936159849167,-0.23534061014652252,-0.18730176985263824,-0.35763171315193176,-0.34244996309280396,-0.15720981359481812,-0.32227009534835815,-0.24072496592998505,-0.10189270228147507,-0.2065955102443695,-0.2444920837879181,-0.2732536792755127,-0.32723838090896606,-0.14102967083454132,0.2757667601108551,0.22021806240081787,0.11918818205595016,0.21908290684223175,0.29006537795066833,0.19006824493408203,0.26405826210975647,0.45015135407447815,0.44870203733444214,0.04172535240650177,0.10186903923749924,0.1577131301164627,0.13209065794944763,-0.17823423445224762,-0.0734337791800499,0.12277781963348389,0.2571779489517212,0.16358090937137604,-0.04863707348704338,0.06906555593013763,-0.022619562223553658,0.014050925150513649,-0.14245451986789703,0.012318805791437626,0.04525541514158249,-0.1471383422613144,0.06080031022429466,-0.20477402210235596,0.02417151816189289,0.2600456178188324,-0.17905345559120178,-0.15511159598827362,-0.03996817767620087,-0.12892760336399078,-0.04681093245744705,-0.14694379270076752,-0.05232711508870125,-0.010928601957857609,0.1570645272731781,-0.1299348771572113,0.10316253453493118,-0.2739517092704773,-0.1775752156972885,-0.2819630205631256,-0.3087352216243744,-0.2346586138010025,-0.28040820360183716,-0.49619060754776,-0.22632594406604767,-0.660517692565918,-0.27114272117614746,-0.21949218213558197,-0.21433216333389282,-0.29735812544822693,0.29266631603240967,0.05995398759841919,-0.08367802947759628,0.17132502794265747,-0.008266462944447994,-0.026436883956193924,0.08735379576683044,0.18650510907173157,0.10432147979736328,-0.229491725564003,-0.010549422353506088,-0.07666245102882385,-0.6042888760566711,-0.38045626878738403,-0.1031050905585289,-0.02216280996799469,-0.3685891330242157,-0.3253245949745178,0.36312174797058105,0.17841339111328125,0.6005808115005493,0.0355098620057106,0.3439929485321045,0.4872424304485321,0.31729575991630554,0.19057907164096832,0.2555076777935028,0.19775338470935822,0.19467748701572418,0.09072085469961166,0.15988942980766296,-0.10071990638971329,0.2173096388578415,0.1586286723613739,0.1625569462776184,0.2520017623901367,0.5742098689079285,0.5754516124725342,0.6119192242622375,0.00990347471088171,0.2930866479873657,0.4960308372974396,-0.06096695363521576,0.13828332722187042,0.28215736150741577,-0.28908437490463257,0.13117526471614838,0.18646235764026642,-0.2653568685054779,-0.05268197879195213,-0.029212746769189835,-0.4986438453197479,-0.20275795459747314,-0.15906131267547607,0.011296674609184265,-0.35764777660369873,-0.35831594467163086,-0.09536806493997574,-0.4388613700866699,-0.3153974711894989,-0.12469404190778732,-0.2288590520620346,-0.21468625962734222,-0.10549955815076828,0.04974422976374626,0.19015488028526306,-0.1502368450164795,-0.2071652114391327,-0.09017622470855713,-0.1542036235332489,-0.17569464445114136,-0.005226236768066883,0.29555216431617737,0.08049865812063217,-0.020897196605801582,0.161586195230484,0.03153712674975395,0.18057458102703094,-0.14305241405963898,0.13640230894088745,0.1380702704191208,0.09888719022274017,0.3702523708343506,0.3174988031387329,0.2528040409088135,0.2571846544742584,0.4481050968170166,0.08404608815908432,0.3191096782684326,0.3035449981689453,0.23581725358963013,0.26811283826828003,0.12667213380336761,-0.10074268281459808,0.13072805106639862,-0.028081856667995453,-0.2614031732082367,0.13420094549655914,0.32780611515045166,0.28716927766799927,0.2951595187187195,0.01886809431016445,0.127749964594841,0.20195867121219635,0.2406817078590393,0.11961246281862259,-0.01623377576470375,0.27711647748947144,-0.1849139779806137,-0.0660899430513382,0.14056047797203064,-0.2635885179042816,-0.25842997431755066,-0.14971119165420532,-0.25558269023895264,-0.1381251960992813,-0.24770671129226685,0.18874585628509521,-0.08223625272512436,-0.12210274487733841,0.3605215847492218,-0.015275349840521812,-0.33264318108558655,-0.04856041073799133,0.1801459789276123,0.0627603754401207,-0.5069363117218018,-0.43293216824531555,-0.15111419558525085,-0.47850722074508667,-0.7932182550430298,-0.43425965309143066,-0.5562543869018555,-0.5853159427642822,-0.4796828627586365,-0.01779128983616829,0.39801523089408875,0.5594905018806458,-0.2636570632457733,0.2281801402568817,0.0196090005338192,-0.04486965015530586,0.1873096376657486,0.1616426408290863,0.028128359466791153,0.019597791135311127,0.1620778888463974,0.05205724388360977,0.06420604139566422,0.20215708017349243,-0.0470278337597847,-0.05246562138199806,0.15320464968681335,0.2809668779373169,0.0990733802318573,0.1634189933538437,0.33360496163368225,0.24992452561855316,0.2479732781648636,0.08151652663946152,0.2921238839626312,0.46312740445137024,-0.14451315999031067,0.15200527012348175,0.268832802772522,0.003992066252976656,0.3371063470840454,-0.16723470389842987,-0.23145993053913116,-0.3924686908721924,0.1457609087228775,-0.2931535840034485,-0.23097878694534302,-0.28936365246772766,-0.010557983070611954,-0.22903722524642944,-0.13879035413265228,-0.3028739094734192,-0.275087833404541,-0.05764784663915634,-0.22158390283584595,-0.2150108367204666,-0.1365843266248703,-0.26690831780433655,-0.24707582592964172,-0.3476819694042206,-0.14576412737369537,-0.12892208993434906,-0.3087138831615448,0.26310279965400696,0.21529991924762726,0.2283715307712555,0.2536935806274414,0.21545849740505219,0.13556069135665894,0.20156703889369965,0.14059162139892578,-0.09086170047521591,-0.040533699095249176,0.024466508999466896,-0.015097321942448616,0.053595829755067825,-0.10202758759260178,-0.07780341804027557,0.06616871803998947,0.02825799211859703,-0.0295966025441885,-0.12274910509586334,-0.3409571647644043,-0.4970827102661133,-0.3599126935005188,-1.0579063892364502,-0.2768933176994324,-0.4024430215358734,-0.49397438764572144,-0.5698819756507874,0.15857377648353577,0.0024924848694354296,-0.20112518966197968,0.08955875784158707,0.1366337239742279,-0.21000754833221436,0.08002062141895294,0.17654894292354584,-0.044398169964551926,-0.19429931044578552,0.09353997558355331,-0.2514955401420593,-0.11646294593811035,-0.36269527673721313,-0.04690796136856079,-0.37637045979499817,0.06089833378791809,-0.2188330590724945,-0.5783308148384094,-0.5277456641197205,-0.3502438962459564,-0.45675909519195557,-0.46521875262260437,-0.3322960138320923,-0.43999043107032776,-0.35602185130119324,-0.3800292909145355,-0.2716023921966553,-0.37586382031440735,-0.1316802203655243,-0.2920076251029968,0.11018974334001541,0.0021402998827397823,-0.12526188790798187,-0.28674811124801636,-0.15287932753562927,0.6682194471359253,0.4531465172767639,0.29929712414741516,0.397981196641922,0.34482547640800476,0.19935493171215057,0.484077513217926,0.4672049880027771,0.25289154052734375,0.1525869369506836,-0.011536521837115288,0.08363112807273865,-0.05277874320745468,-0.01288553699851036,-0.05965876206755638,0.01400691457092762,0.14826084673404694,0.06386807560920715,-0.24679255485534668,-0.1733747273683548,-0.2078215628862381,-0.031440284103155136,-0.8334076404571533,-0.14143696427345276,-0.603987991809845,-0.2229313850402832,-0.21980662643909454,0.18183603882789612,0.07826877385377884,-0.15490944683551788,0.08036281913518906,0.1171087995171547,0.02217547781765461,0.12697924673557281,0.1278146207332611,0.030030706897377968,0.20292934775352478,-0.05931742861866951,0.12044383585453033,0.17837733030319214,0.7577633857727051,0.10826932638883591,0.18570487201213837,0.3255436420440674,0.1471550315618515,0.17280399799346924,0.24552972614765167,-0.001957358093932271,0.17355209589004517,0.3968055248260498,0.08551938831806183,0.17492762207984924,0.03925587236881256,0.24354064464569092,0.30619052052497864,0.3094305694103241,0.038157831877470016,0.2711275517940521,0.5884258151054382,0.012964688241481781,0.15036964416503906,0.2533556818962097,-0.009975754655897617,0.08485176414251328,0.017434533685445786,-0.14362069964408875,0.10673769563436508,-0.16412942111492157,-0.15579341351985931,-0.09248113632202148,-0.2154768854379654,-0.4979858100414276,0.09179897606372833,0.05840825289487839,0.037413857877254486,0.17724637687206268,0.10801606625318527,-0.096613310277462,0.03272030130028725,0.11560029536485672,0.023101618513464928,-0.16673040390014648,-0.08981047570705414,-0.15929464995861053,-0.3692227303981781,-0.5655053853988647,-0.19624179601669312,-0.19930405914783478,-0.17967723309993744,-0.1417517215013504,-0.040828511118888855,0.1197696179151535,0.13976219296455383,-0.06468214839696884,0.21356241405010223,0.276213139295578,0.041687238961458206,0.11859330534934998,0.1302178055047989,0.14679083228111267,-0.24559929966926575,-0.012382246553897858,0.03964181989431381,-0.047823715955019,0.00600144499912858,0.22875575721263885,-0.2634584903717041,-0.1825803518295288,-0.08480463922023773,0.10150503367185593,0.20463711023330688,0.04896701127290726,0.4587773382663727,0.05154431611299515,0.19320951402187347,-0.06433507055044174,-0.02158922515809536,0.24536925554275513,0.10848336666822433,-0.03395167365670204,0.2651595175266266,0.3806089162826538,-0.281351774930954,0.11315322667360306,0.11928540468215942,0.05679306015372276,0.006619563791900873,0.02104847878217697,-0.21933606266975403,0.15448418259620667,-0.1678312122821808,-0.061724983155727386,-0.18994364142417908,0.08210059255361557,0.16627998650074005,0.11326252669095993,0.1818726658821106,0.14380040764808655,0.12864212691783905,0.19446514546871185,0.1284070611000061,0.0722876489162445,0.1270059496164322,0.07305052876472473,-0.18069973587989807,-0.48309364914894104,-0.43043720722198486,-0.3155113756656647,-0.8648259043693542,-0.5107616186141968,-0.34501469135284424,-0.4319424033164978,-0.42221808433532715,-0.025248341262340546,-0.08319101482629776,-0.09015151113271713,-0.0023418418131768703,-0.11738692969083786,-0.15059083700180054,-0.0671258270740509,0.02619870938360691,-0.03800751641392708,-0.08189664036035538,-0.04545196145772934,-0.16618242859840393,-0.14019930362701416,0.12311965227127075,-0.11412248015403748,-0.2436770498752594,-0.1629578173160553,-0.050417460501194,-0.17661163210868835,-0.06469907611608505,-0.1463983803987503,-0.152837872505188,0.19075807929039001,-0.1404726654291153,-0.049344751983881,-0.007169011514633894,-0.17904521524906158,-0.020625576376914978,-0.05025917664170265,-0.08468865603208542,-0.03373079374432564,-0.007293780334293842,0.03673669695854187,0.23326833546161652,0.0007127081044018269,0.0789351835846901,0.028412263840436935,0.0329882875084877,0.0056170024909079075,-0.1503244936466217,-0.18550090491771698,-0.18068017065525055,-0.15751804411411285,-0.24183328449726105,0.06222809478640556,-0.05494500324130058,0.030184602364897728,0.01051093265414238,-0.033260513097047806,0.042798932641744614,0.18355374038219452,-0.03280896693468094,-0.0023739179596304893,0.026532741263508797,-0.09499450027942657,0.04956154525279999,0.053643759340047836,-0.10158726572990417,-0.13299407064914703,0.03961499407887459,0.04506094008684158,0.2417137622833252,0.1253863424062729,-0.11093387007713318,-0.10638140887022018,0.11811621487140656,-0.006216946057975292,0.00822585541754961,-0.006399369798600674,-0.016373412683606148,-0.11198491603136063,-0.007432918064296246,-0.23793481290340424,-0.2692868709564209,-0.10308268666267395,-0.22173820436000824,0.12034929543733597,-0.08189859986305237,0.026278939098119736,-0.04920294135808945,-0.17571841180324554,-0.06251876801252365,-0.12008033692836761,0.08765888959169388,-0.17185130715370178,-0.1280689239501953,0.1456008404493332,-0.05875072255730629,-0.20664602518081665,0.03628705441951752,0.08551128953695297,-0.21170638501644135,0.0076686181128025055,0.25536978244781494,-0.12234964966773987,0.01951679214835167,-0.13442490994930267,0.046867549419403076,-0.05759342014789581,0.15196067094802856,0.2064962089061737,0.375517874956131,0.27511656284332275,-0.9125224947929382,0.3452173173427582,0.0523168183863163,0.13010406494140625,0.21468082070350647,-0.06006702780723572,0.07536344230175018,0.025599082931876183,-0.04649898409843445,-0.14688453078269958,0.2209414392709732,0.06024004518985748,0.01416530180722475,-0.11590033769607544,0.2559162676334381,-0.31755349040031433,0.08421654254198074,-0.1723460853099823,-0.24302558600902557,0.13754817843437195,0.26518315076828003,0.1097804382443428,0.03979169949889183,-0.09201422333717346,-0.07600823044776917,-0.11107422411441803,0.004931808914989233,-0.13558036088943481,0.026814062148332596,0.03206033632159233,0.041828833520412445,0.06442394107580185,-0.12249838560819626,-0.028295444324612617,0.014535299502313137,0.0021970614325255156,-0.09316975623369217,-0.061529651284217834,-0.028790906071662903,0.05660413205623627,-0.034432295709848404,0.035262614488601685,0.052563998848199844,0.07178030163049698,0.050505880266427994,0.107268787920475,0.19956710934638977,0.02267976850271225,-0.0031050199177116156,0.09775403887033463,-1.0282891988754272,-0.8132115006446838,-0.7523148655891418,-0.6952573657035828,-1.281789779663086,-0.771426260471344,-0.887542188167572,-0.8594267964363098,-0.8604171872138977,0.13091713190078735,0.2063826322555542,-0.1945158839225769,-0.019874732941389084,0.282687783241272,-0.30712786316871643,0.08847789466381073,0.3462919294834137,-0.4139185845851898,0.15440219640731812,0.018329836428165436,0.07950995117425919,0.35406556725502014,-0.4936417043209076,0.1468501091003418,0.298738569021225,0.23650771379470825,0.2739126980304718,0.09320709109306335,0.023425303399562836,0.2458849549293518,0.3238354027271271,0.32415246963500977,-0.12829312682151794,0.2896382808685303,0.2875187397003174,0.11264260858297348,-0.06299386918544769,-0.05721753463149071,-0.07357620447874069,0.15122714638710022,0.2351183146238327,0.06885097920894623,0.1475975513458252,-0.08096619695425034,-0.06658927351236343,-0.30880436301231384,-0.22898249328136444,-0.2871936559677124,-0.32274097204208374,-0.3942233920097351,-0.1622573733329773,-0.5243260264396667,-0.10597603768110275,-0.3209735155105591,-0.1302448809146881,0.12994812428951263,-0.13737206161022186,-0.09998378902673721,0.05580086261034012,0.13977369666099548,-0.1004657968878746,0.13861501216888428,-0.11498316377401352,-0.13212701678276062,-0.009171339683234692,0.008048692718148232,-0.11349049210548401,-0.10033600777387619,-0.009292421862483025,-0.12763728201389313,-0.12227972596883774,-0.06406450271606445,-0.12779763340950012,-0.07976417988538742,-0.15232351422309875,0.03350336477160454,-0.04252059757709503,0.01982378214597702,-0.05814000964164734,-0.05655341595411301,-0.04132957383990288,-0.5371444225311279,-0.3594771921634674,-0.36900877952575684,-0.43459469079971313,-0.11228114366531372,-0.2926288843154907,-0.34583625197410583,-0.4071616232395172,-0.2898145020008087,0.16821052134037018,-0.04631713777780533,0.1723136305809021,-0.06567639112472534,-0.1432996690273285,-0.0010883036302402616,-0.21687276661396027,-0.10944993793964386,-0.06734799593687057,-0.24357974529266357,-0.23294104635715485,-0.2830967903137207,-0.07259958982467651,-0.02215348556637764,-0.14401350915431976,-0.13579559326171875,-0.269290953874588,-0.34285199642181396,0.290122389793396,0.312557578086853,0.385114848613739,0.518568217754364,0.5034903883934021,0.41456732153892517,0.37466633319854736,0.36021700501441956,0.15461814403533936,0.07834642380475998,-0.10954801738262177,-0.09849836677312851,0.12327911704778671,0.13822396099567413,0.09121932089328766,0.1296682059764862,-0.004942561034113169,0.06256770342588425,0.22003304958343506,0.2825978696346283,0.05512341856956482,0.29358139634132385,0.36549627780914307,0.12443104386329651,0.003326588775962591,0.4247061014175415,0.17062418162822723,0.1318981945514679,-0.0666743740439415,-0.12809839844703674,0.11562046408653259,-0.034143947064876556,-0.1291855424642563,-0.021457038819789886,-0.19719097018241882,-0.20499736070632935,-0.44019222259521484,-0.07317200303077698,-0.378991961479187,-0.6085951924324036,0.003162322798743844,-0.24594207108020782,-0.5283246040344238,-0.5245240330696106,-0.45629197359085083,-0.11419384181499481,-0.044971197843551636,-0.0033516292460262775,-0.010753354988992214,0.13884292542934418,-0.17769785225391388,-0.08707819133996964,0.014202135615050793,-0.03229653462767601,0.5406931638717651,0.41429659724235535,0.4392496645450592,0.550249457359314,0.39794421195983887,0.27834758162498474,0.48211121559143066,0.39133551716804504,0.37942036986351013,0.02989155799150467,0.01696009747684002,0.10946115851402283,0.30258139967918396,0.289003849029541,0.33762916922569275,0.1795368790626526,0.21011419594287872,0.21207557618618011,0.38393351435661316,0.35606446862220764,0.6186679005622864,0.6268702149391174,0.4389060139656067,0.42749834060668945,0.5117899179458618,0.3140942454338074,0.4800146222114563,0.10059677809476852,0.12830261886119843,0.07479678839445114,0.048192404210567474,0.1354646384716034,0.1094404086470604,0.15120798349380493,0.18631115555763245,0.16343915462493896,-0.08647313714027405,-0.07476445287466049,-0.15610463917255402,-0.031526435166597366,0.018503107130527496,-0.002682839287444949,-0.14885380864143372,-0.18166227638721466,-0.195139542222023,0.406437486410141,0.25705990195274353,0.3356896638870239,0.5542513132095337,0.5101231336593628,0.36452385783195496,0.6407761573791504,0.4343116581439972,0.3653765916824341,0.060756489634513855,-0.007888369262218475,0.12772051990032196,-0.08944937586784363,-0.09294140338897705,0.07388544827699661,0.06945285201072693,0.03156768158078194,0.12679389119148254,-0.2934929132461548,-0.3073127269744873,-0.2213066965341568,-0.2191379964351654,-0.19765962660312653,-0.03968406841158867,-0.4320448338985443,-0.3906953036785126,-0.1529487669467926,0.3216191530227661,0.21426331996917725,0.15671952068805695,0.27749839425086975,0.015443195588886738,0.18827161192893982,0.2299959510564804,0.01538395881652832,0.19133809208869934,0.03158419206738472,-0.11045802384614944,-0.04052375629544258,0.13124744594097137,-0.11683530360460281,-0.15009886026382446,0.07392614334821701,-0.1649731993675232,0.03640109673142433,-0.252601683139801,-0.14075568318367004,-0.2444935142993927,-0.044981714338064194,-0.10390899330377579,-0.20046019554138184,-0.3886783719062805,-0.4052119851112366,-0.42672860622406006,-0.1639132797718048,-0.10612820088863373,-0.04571780562400818,-0.2179175317287445,-0.09298250824213028,-0.11905284225940704,-0.1462050825357437,-0.028009045869112015,-0.06657808274030685,-0.5742922425270081,-0.41670116782188416,-0.16516409814357758,-0.584974467754364,-0.26863348484039307,-0.22993704676628113,-0.4520075023174286,-0.7281270623207092,-0.5047938227653503,-0.18203648924827576,0.06329115480184555,0.044935327023267746,-0.15270844101905823,0.3072487413883209,0.0018556432332843542,-0.3306828737258911,-0.01868152804672718,-0.14991797506809235,-0.13134194910526276,-0.08085930347442627,-0.012026104144752026,0.13704638183116913,0.5123547911643982,-0.009164908900856972,0.2427140474319458,-0.006213622633367777,0.0004348760412540287,-0.1118999570608139,-0.2463788539171219,-0.2952314019203186,-0.2857857942581177,0.7309054136276245,-0.3310554623603821,-0.18926867842674255,-0.0905257910490036,-0.15681079030036926,0.027981946244835854,-0.05137168988585472,-0.11256120353937149,-0.06980666518211365,-0.07107116281986237,-0.04689948633313179,-0.25065484642982483,-0.002378069795668125,-0.30084264278411865,-0.17993445694446564,-0.04866018518805504,-0.09699389338493347,-0.10229022055864334,0.4995598793029785,-0.04158719629049301,-0.013193730264902115,-0.04022866487503052,-0.23681972920894623,0.05618174374103546,-0.001063011703081429,0.02649209462106228,-0.01952097751200199,-0.14629076421260834,-0.01686464622616768,0.022562077268958092,-0.01913224533200264,-0.055183883756399155,-0.022267840802669525,-0.12255609780550003,-0.23760801553726196,0.1204540878534317,-0.408405065536499,0.04378156736493111,-0.0017540444387122989,-0.060419872403144836,-0.1790984869003296,-0.10898660868406296,0.49836522340774536,0.467288613319397,0.3091946542263031,0.3595961034297943,0.6205115914344788,0.2001638561487198,0.5967870354652405,0.1223883330821991,-0.01598804071545601,0.15670426189899445,-0.21367642283439636,0.18216149508953094,0.5723844170570374,-0.10681860893964767,-0.027605880051851273,0.18093043565750122,-0.16910739243030548,-0.15250904858112335,-0.16870756447315216,-0.14660605788230896,-0.00951126217842102,0.39165303111076355,-0.03218606859445572,0.11421665549278259,-0.2099905014038086,-0.02107204496860504,-0.2172132134437561,0.105567067861557,0.1480524241924286,-0.030996548011898994,0.3658292293548584,-0.13879328966140747,-0.22287482023239136,0.2541368007659912,0.25806140899658203,-0.22078843414783478,0.1564805954694748,-0.2772911489009857,0.04591602459549904,-0.16787542402744293,-0.06441163271665573,0.15808190405368805,0.025266515091061592,-0.14938704669475555,-0.18827515840530396,-0.10237912833690643,-0.12475524097681046,-0.014496124349534512,-0.2772130072116852,0.007882068865001202,-0.24805089831352234,-0.036871422082185745,-0.28690505027770996,-0.2441750466823578,-0.22107677161693573,-0.015720365568995476,-0.11465108394622803,-0.31228476762771606,0.16708038747310638,0.061746370047330856,-0.0644468143582344,0.022830955684185028,0.0694371834397316,0.08216707408428192,0.06685107201337814,-0.14728054404258728,-0.02757418341934681,-0.14096786081790924,0.1689412146806717,-0.03839830309152603,0.05857979133725166,-0.09075262397527695,0.1380860060453415,-0.09179150313138962,0.03482268750667572,0.5709869265556335,0.2811468243598938,-0.10354027152061462,-0.07200304418802261,-0.16667334735393524,-0.031087609007954597,-0.08647623658180237,-0.018506115302443504,-0.06812265515327454,-0.061469610780477524,-0.14197108149528503,-0.047810088843107224,-0.13611309230327606,0.10031082481145859,-0.26909035444259644,-0.4165492653846741,-0.35837775468826294,-0.4204268157482147,-0.6985798478126526,-0.45929548144340515,-0.0658416897058487,-0.31218910217285156,-0.1612662523984909,-0.1425318717956543,0.2945921719074249,0.09002457559108734,0.1820899397134781,-0.12081345915794373,0.029520243406295776,-0.0546950064599514,-0.07105816155672073,0.3223058879375458,0.06457468867301941,0.3180796802043915,-0.1944645494222641,0.31671133637428284,-0.28987377882003784,0.27041974663734436,-0.16374804079532623,0.3381969928741455,-0.18447092175483704,0.032142553478479385,0.2358635663986206,-0.07921935617923737,0.034154411405324936,0.034289613366127014,-0.1525173932313919,-0.09806286543607712,0.33516910672187805,-0.1689261496067047,-0.04987823963165283,-0.0944284051656723,-0.3307907283306122,-0.11786899715662003,0.5763117671012878,-0.060712993144989014,0.03420607000589371,-0.074215367436409,-0.3097984194755554,-0.3300015926361084,-0.2881384491920471,-0.09347095340490341,-0.3893398642539978,0.012806852348148823,-0.26154235005378723,-0.02389526553452015,-0.045435287058353424,-0.0721396654844284,-0.08624764531850815,-0.2327164262533188,-0.13579130172729492,-0.0962095707654953,0.26624852418899536,0.008985317312180996,-0.0810682401061058,-0.19809561967849731,-0.0785454735159874,-0.045075178146362305,-0.013500806875526905,0.06488972157239914,-0.20281784236431122,0.029220663011074066,-0.15430964529514313,-0.09567579627037048,0.05623377487063408,-0.011589808389544487,-0.16683784127235413,-0.26378005743026733,-0.11191952228546143,-0.03749529644846916,0.02673611044883728,-0.054924968630075455,-0.054134488105773926,-0.03293487802147865,0.01980825886130333,-0.5077599287033081,-0.43226465582847595,-0.643393337726593,-0.3816377818584442,-0.07095139473676682,-0.5019937753677368,-0.48937416076660156,-0.36174091696739197,-0.6349178552627563,-0.1284404695034027,-0.34446337819099426,-0.08008702844381332,-0.2743994891643524,-0.4225675165653229,0.01413946133106947,-0.7460492849349976,-0.867861270904541,-0.3233596682548523,0.056893978267908096,-0.3219074308872223,-0.38153108954429626,-0.04385078698396683,-0.06345918029546738,0.13677695393562317,-0.09258772432804108,-0.1343250274658203,-0.2647382616996765,0.0830041766166687,0.26307159662246704,-0.007279114797711372,0.08437873423099518,0.08733773976564407,0.023260602727532387,-0.02968442067503929,0.10898575186729431,-0.29177626967430115,-0.1444300413131714,-0.23781999945640564,-0.41689300537109375,-0.1308295577764511,-0.2189052700996399,-0.2845008671283722,-0.06730136275291443,-0.11247096210718155,-0.35174238681793213,-0.2911823093891144,0.24416717886924744,-0.12525060772895813,0.02602991834282875,0.529170572757721,0.26108959317207336,-0.2798720598220825,0.38291651010513306,0.2870887517929077,0.012093393132090569,-0.19087523221969604,-0.12876735627651215,0.12925171852111816,0.2587879002094269,-0.02067987620830536,-0.027630601078271866,-0.04287072271108627,-0.2155127078294754,-0.38062867522239685,-0.27834761142730713,-0.37813490629196167,-0.5531911253929138,0.04576442763209343,-0.5172641277313232,-0.47170206904411316,-0.1172955185174942,-0.44303077459335327,-0.0008928005117923021,0.007895824499428272,-0.23861397802829742,-0.09647995978593826,0.12850607931613922,-0.007401390932500362,-0.5023784637451172,0.18209367990493774,0.312581330537796,0.09234333783388138,0.20251213014125824,0.19955424964427948,0.0957658439874649,0.03391466662287712,0.24794194102287292,0.08804269880056381,0.03947300836443901,0.0572509802877903,-0.3566727042198181,-0.22263506054878235,-0.2644948363304138,0.054853081703186035,0.15710489451885223,0.09100951999425888,-0.4718477725982666,-0.2333981841802597,-0.30430495738983154,0.10199785977602005,-0.01457278523594141,0.36061933636665344,0.2738965153694153,-0.02770162746310234,0.33303302526474,0.3019014298915863,0.24771733582019806,0.3499915599822998,-0.04198069870471954,-0.1432517021894455,-0.04304679110646248,-0.024312932044267654,-0.16026127338409424,-0.09201396256685257,-0.014496286399662495,0.0162644125521183,0.10821174830198288,-0.0964268147945404,0.028277799487113953,-0.2383408099412918,0.13760997354984283,0.06844264268875122,-0.005406098905950785,-0.05502808094024658,-0.14896433055400848,-0.09606507420539856,0.026561353355646133,-0.0552954226732254,-0.04599406197667122,-0.05210740864276886,-0.037961944937705994,-0.05126871541142464,0.043865449726581573,-0.023859422653913498,-0.05417165905237198,0.20967312157154083,-0.044574249535799026,0.13698191940784454,-0.17729128897190094,-0.5367125272750854,-0.23821796476840973,0.1842009276151657,-0.3168315887451172,0.03063417598605156,-0.8391357064247131,-0.5001154541969299,-0.31073224544525146,-0.4234813451766968,-0.13518747687339783,-0.1788230538368225,-0.5042675137519836,-0.5051954984664917,-0.05084861442446709,0.10965118557214737,0.01318102702498436,-0.24211850762367249,0.21920888125896454,-0.06978588551282883,0.1577281355857849,0.1580769568681717,0.08622432500123978,-0.01907636970281601,-0.18967124819755554,-0.27016162872314453,-0.1763637810945511,0.3285244405269623,0.07822925597429276,0.048218678683042526,-0.1283002644777298,-0.1263691633939743,-0.17212024331092834,0.16018468141555786,-0.013128748163580894,-0.062017228454351425,0.11605469137430191,0.1829296052455902,-0.067940354347229,-0.18661053478717804,0.28048473596572876,-0.2755783498287201,-0.1862943023443222,-0.22522041201591492,0.021477272734045982,-0.3130604326725006,-0.20232319831848145,-0.17511725425720215,-0.2345891147851944,-0.18293072283267975,-0.0674440786242485,-0.5542693734169006,-0.37138184905052185,-0.29655876755714417,-0.5644572377204895,-0.2956050932407379,-0.18860872089862823,-0.4952573776245117,-0.6538398265838623,-0.5873138904571533,-0.021306635811924934,-0.36415529251098633,-0.22035659849643707,0.023365026339888573,-0.20748752355575562,-0.011936082504689693,-0.07892155647277832,-0.1511797457933426,-0.15129023790359497,-0.12552231550216675,-0.10152176022529602,-0.13893872499465942,-0.46376553177833557,-0.7501608729362488,-0.11901301145553589,-0.3586283028125763,-0.20540311932563782,-0.22171540558338165,-0.31146302819252014,-0.22878405451774597,-0.45280954241752625,-0.11232874542474747,-0.6358394622802734,-0.4220077693462372,-0.2882055640220642,-0.28455546498298645,-0.25691652297973633,0.07024324685335159,-0.00834166631102562,-0.04050033539533615,0.22840923070907593,0.2860022485256195,-0.09945942461490631,0.1932271271944046,0.11835026741027832,0.19015076756477356,-0.42125824093818665,-0.09336356818675995,0.08536988496780396,-0.5805330872535706,-0.7943670153617859,-0.3422470986843109,-0.43829110264778137,-0.01842002384364605,-0.08344907313585281,0.17740081250667572,0.03472363203763962,0.2868187129497528,0.0779738575220108,0.23530617356300354,0.1800403892993927,0.2577987015247345,0.05793151259422302,0.3359249532222748,0.04297773912549019,0.17821063101291656,0.17284440994262695,-0.08197055757045746,0.32543718814849854,0.018556006252765656,0.06978783011436462,0.06596560776233673,0.15182869136333466,-0.03824406489729881,-0.3532552123069763,0.18472036719322205,-0.15117530524730682,-0.47195592522621155,-0.09514667838811874,0.3178110718727112,-0.03242545574903488,0.09861826151609421,-0.2880837321281433,-0.18570902943611145,0.019868504256010056,-0.1941414475440979,-0.36455971002578735,0.11751966178417206,-0.09190155565738678,0.041365787386894226,0.07619627565145493,-0.14750303328037262,-0.2484232485294342,-0.15954101085662842,-0.1125599816441536,-0.33118322491645813,-0.35094356536865234,-0.28761735558509827,-0.07453029602766037,-0.21474745869636536,0.03341870754957199,-0.35707318782806396,-0.15971900522708893,-0.23611818253993988,-0.5625045299530029,-0.09281450510025024,-0.08921574801206589,-0.3514770567417145,-0.08093343675136566,0.19063381850719452,-0.023318100720643997,0.06674878299236298,0.1974368542432785,0.15223585069179535,0.24890203773975372,0.2681660056114197,0.15223443508148193,0.11920821666717529,0.14196522533893585,0.1422344446182251,0.05013928934931755,0.0077966563403606415,0.25490766763687134,0.1072741448879242,0.32013148069381714,0.29736489057540894,0.4234687387943268,0.2591545581817627,0.1335892677307129,-0.025237098336219788,0.052560992538928986,-0.4124371111392975,-0.18837517499923706,-0.16935604810714722,-0.23033395409584045,-0.24274000525474548,-0.004948661662638187,-0.01618986949324608,0.22559964656829834,0.03942309692502022,0.1607663482427597,0.14394105970859528,0.15037794411182404,0.11775447428226471,0.1642628312110901,-0.08585197478532791,-0.304103821516037,-0.16198226809501648,-0.287619948387146,-0.4073195457458496,-0.3145800232887268,0.0007312864763662219,0.04002862796187401,0.11546803265810013,-0.05107571929693222,0.023603418841958046,0.013797194696962833,0.08953603357076645,0.09924691915512085,-0.08717843145132065,-0.07769400626420975,-0.15786011517047882,-0.057404525578022,-0.09583238512277603,0.042048729956150055,-0.07915226370096207,0.02491154707968235,0.07074011862277985,-0.1898619532585144,-0.24251846969127655,-0.2173488885164261,-0.48844608664512634,0.10683747380971909,-0.16997560858726501,-0.09767644852399826,-0.6895643472671509,-0.3690691888332367,-0.5198372006416321,-0.371454656124115,-0.23236913979053497,-0.4784241318702698,0.18036337196826935,0.10240712761878967,0.2977043688297272,-0.17509816586971283,0.3326401114463806,0.2800177037715912,-0.1312345415353775,-0.02956675924360752,0.10042770206928253,-0.19275987148284912,-0.11014307290315628,0.12706631422042847,-0.1350378841161728,0.3583102822303772,0.3946855962276459,0.10853928327560425,0.2568839192390442,0.31594040989875793,0.027663541957736015,-0.0313701368868351,0.04433730989694595,-0.21775054931640625,-0.5452322959899902,0.18218904733657837,0.019904935732483864,0.014155537821352482,0.3164636492729187,0.01996748149394989,0.019193312153220177,-0.13597647845745087,-0.011754984967410564,-0.34568268060684204,-0.20571592450141907,-0.13824063539505005,-0.2384692132472992,-0.2869306206703186,-0.15523222088813782,-0.1280626356601715,-0.14405356347560883,-0.15493346750736237,-0.5368860960006714,-0.2492949664592743,-0.31980496644973755,-0.32278111577033997,-0.26108357310295105,-0.057891931384801865,-0.1569603532552719,-0.034839075058698654,-0.07896406203508377,-0.5092975497245789,0.03501828387379646,-0.0683741346001625,-0.15356196463108063,-0.06586381047964096,-0.12072797864675522,0.030330464243888855,-0.07273152470588684,-0.10206761211156845,-0.7200733423233032,-0.025953056290745735,-0.06611361354589462,0.015737837180495262,-0.04509734362363815,-0.045180827379226685,0.010682019405066967,-0.04513243958353996,-0.10040286928415298,-0.9536271691322327,-0.056656256318092346,-0.029642434790730476,-0.04396843537688255,-0.012949994765222073,-0.003186366520822048,0.11958792805671692,-0.02288585714995861,0.13595743477344513,0.6444195508956909,0.004915205296128988,0.0045247203670442104,0.07637196034193039,0.14182105660438538,-0.07016907632350922,-0.01654566265642643,0.02200990915298462,-0.12085944414138794,-0.9124647378921509,-0.1791844666004181,-0.06396834552288055,0.03190544247627258,0.08059584349393845,0.017314821481704712,0.02764439582824707,0.06274653226137161,0.009852632880210876,0.5595479607582092,-0.03760750964283943,0.0173228457570076,0.07503466308116913,0.024829767644405365,-0.008301773108541965,0.08206667751073837,0.07295720279216766,-0.05457986891269684,0.6075048446655273,0.09311962127685547,0.08357606083154678,-0.03606288880109787,0.13246209919452667,-0.18879245221614838,-0.24848535656929016,0.1604837030172348,0.04378247633576393,0.20001105964183807,-0.006610313896089792,-0.13744191825389862,0.1673368513584137,0.3535347580909729,-0.013327375054359436,-0.02099747397005558,-0.019088080152869225,-0.01437940914183855,-0.5208117365837097,0.056833650916814804,-0.06026601791381836,0.17963960766792297,0.08377829194068909,0.04446618631482124,-0.0360034815967083,-0.020746605470776558,0.05785147100687027,-0.5082322359085083,-0.16728752851486206,-0.07590623199939728,-0.02110760286450386,-0.12621517479419708,0.025097813457250595,-0.03332351893186569,-0.03884030133485794,-0.022289548069238663,-0.28468722105026245,-0.08865420520305634,0.03203216567635536,0.07822351902723312,0.0990230068564415,0.006514457985758781,0.07603996992111206,0.021564777940511703,-0.09289658814668655,0.6624600291252136,0.10400521010160446,-0.015698691830039024,0.022226952016353607,0.03504282236099243,-0.06963184475898743,-0.15814074873924255,-0.0478767454624176,-0.0886242538690567,0.4342765212059021,-0.12204690277576447,0.007760883308947086,0.005504595581442118,0.02420780621469021,0.0010972690070047975,0.003263261169195175,0.0635349303483963,-0.07445531338453293,0.14665313065052032,-0.15252162516117096,-0.1781691312789917,-0.017558453604578972,-0.0561053492128849,0.05693655088543892,0.05130806937813759,0.0525076799094677,-0.0055355047807097435,0.5743131637573242,0.10781927406787872,0.006427587475627661,0.0188343096524477,0.012818532064557076,-0.04930178448557854,-0.05140014365315437,0.010022081434726715,-0.0709734633564949,-0.668631911277771,-0.02089526690542698,-0.08851924538612366,0.09020782262086868,0.09035175293684006,0.08521284908056259,0.08373600989580154,0.06270317733287811,0.15994524955749512,0.7227546572685242,0.02910575270652771,0.10090935230255127,0.10823143273591995,-0.01996001787483692,0.04008866846561432,-0.08813680708408356,-0.07187295705080032,-0.0022198406513780355,-0.49811774492263794,-0.35631194710731506,-0.06784325838088989,-0.49953195452690125,-0.8849223256111145,-0.13539038598537445,-0.07174856960773468,-0.14920282363891602,0.020570097491145134,-0.4576936662197113,0.07853390276432037,-0.08956258744001389,-0.011521006003022194,-0.11800409853458405,-0.10594994574785233,-0.03681406378746033,0.05541016906499863,-0.013929168693721294,0.7990446090698242,0.1389647126197815,0.0269940122961998,0.10851132869720459,0.04822034016251564,-0.04185822978615761,0.009885412640869617,-0.013210257515311241,0.05875645577907562,0.8577065467834473,0.09158675372600555,0.06888209283351898,0.2093820720911026,-0.028936609625816345,-0.04249437898397446,-0.046520132571458817,-0.14454874396324158,-0.009765857830643654,-0.3397706151008606,0.008124004118144512,-0.0058019645512104034,0.11548679322004318,0.21192175149917603,-0.0364018976688385,-0.07517866790294647,-0.1158355250954628,-0.05161220207810402,-0.5932577252388,-0.044489793479442596,0.015016981400549412,-0.06975231319665909,-0.1832892894744873,-0.04689399152994156,0.02691376581788063,-0.003727361559867859,-0.0034271315671503544,-0.563411295413971,0.052297722548246384,-0.03364083170890808,-0.044979650527238846,-0.03870103880763054,-0.09709485620260239,-0.018431248143315315,-0.1656436026096344,-0.2285752147436142,0.8064860701560974,-0.06464686244726181,0.012849939987063408,-0.15344659984111786,-0.17773817479610443,-0.2538529336452484,-0.06282263249158859,-0.17310363054275513,-0.0543956458568573,0.4923241436481476,-0.06514588743448257,-0.09018054604530334,0.10550636798143387,-0.05880776047706604,0.23920004069805145,0.021522369235754013,0.1469573676586151,0.03770768269896507,0.5696488618850708,0.06280186027288437,0.27407926321029663,0.03711610659956932,0.0437072329223156,-0.3452649712562561,-0.02336861565709114,-0.014797244220972061,-0.4087417721748352,-0.6620256900787354,0.1557539403438568,-0.5547223687171936,0.07015084475278854,-0.14589734375476837,-0.04386787489056587,0.008173288777470589,-0.00614778371527791,0.06806894391775131,0.7481151819229126,0.08433686941862106,0.08140410482883453,0.13682734966278076,-0.10967221111059189,-0.010207578539848328,-0.33145201206207275,-0.028755564242601395,-0.1843908727169037,-0.8715724945068359,-0.20643508434295654,-0.07064533233642578,-0.021120671182870865,-0.06760881841182709,-0.04466280713677406,0.17492498457431793,0.051011599600315094,0.10465925186872482,-0.40344545245170593,-0.0043413653038442135,-0.07131431251764297,0.01279979944229126,-0.01769958809018135,-0.4359048008918762,0.33141636848449707,-0.2969963252544403,-0.3939307928085327,0.37482354044914246,-0.03881516307592392,-0.08860743045806885,0.1538892388343811,0.011740468442440033,-0.08413127809762955,0.03781105950474739,-0.27954643964767456,-0.02490347810089588,0.6567787528038025,-0.07237368822097778,-0.2448767125606537,0.1055133268237114,-0.17840082943439484,-0.004607788752764463,-0.26659876108169556,0.031998325139284134,-0.0626259446144104,-0.038151081651449203,0.0609448179602623,0.21636433899402618,0.2403758019208908,0.20426124334335327,-0.295230895280838,0.12252811342477798,-0.03510298207402229,0.193156898021698,0.19098633527755737,-0.00748625909909606,-0.4277406334877014,0.3008515536785126,0.10734506696462631,-0.2993347942829132,-0.08242295682430267,-0.3320333659648895,-0.1312924176454544,0.06465428322553635,0.059351399540901184,-0.39665839076042175,-0.012106412090361118,-0.22559688985347748,-0.11879632622003555,0.016230249777436256,0.05981781333684921,-0.08324514329433441,-0.28607141971588135,0.12555435299873352,-0.20587973296642303,-0.04249882698059082,-0.0712345689535141,-0.2981763780117035,-0.14104804396629333,-0.23311734199523926,-0.1718379259109497,-0.22318287193775177,-0.01442041527479887,-0.26488780975341797,0.09121092408895493,-0.037344906479120255,0.004604427143931389,-0.08001011610031128,0.05888216570019722,-0.22229909896850586,-0.6085239052772522,-0.1590653359889984,0.05204308032989502,-0.21214516460895538,0.0638076439499855,-0.029573189094662666,-0.10215456783771515,-0.08522973209619522,0.05865875631570816,0.6058597564697266,0.10356844216585159,-0.12156922370195389,-0.10835045576095581,-0.1813088357448578,-0.3196394741535187,-0.35247546434402466,-0.10143207013607025,-0.5658817291259766,-0.8354529738426208,-0.24193218350410461,-0.36604276299476624,-0.43784835934638977,-0.10879625380039215,0.3064334988594055,0.14756466448307037,0.19448547065258026,0.08007664233446121,-0.3552175462245941,-0.04233936220407486,0.0923018679022789,-0.12037394195795059,0.02553899958729744,-0.20518195629119873,-0.2867060899734497,-0.26930445432662964,0.0709543451666832,0.13870027661323547,-0.24026189744472504,-0.23282520473003387,-0.12745581567287445,-0.2041475623846054,-0.19186818599700928,-0.08860144764184952,-0.31687986850738525,0.2083316445350647,-0.13389024138450623,-0.12407416850328445,-0.1553088277578354,0.3076116442680359,-0.3332802653312683,-0.04716971516609192,-0.048273008316755295,-0.13880358636379242,0.07008827477693558,-0.525425374507904,-0.3327881991863251,-0.2808610498905182,0.0341762974858284,-0.2658756375312805,0.05425477400422096,0.08469229936599731,-0.053938206285238266,0.1893342286348343,0.36951401829719543,0.3031409978866577,0.24757888913154602,0.029252443462610245,-0.06542033702135086,0.11368716508150101,0.2248086929321289,0.20769676566123962,0.07198047637939453,0.17226910591125488,0.04985653981566429,0.08826348185539246,0.004585517104715109,0.15575335919857025,-0.04336065053939819,-0.21988771855831146,0.05814830958843231,-0.17311672866344452,0.1651955097913742,-0.1507340669631958,0.046065639704465866,-0.0009582713828422129,-0.09268485754728317,-0.21451452374458313,-0.1372814029455185,-0.14623410999774933,-0.21284234523773193,-0.222677081823349,-0.18575143814086914,-0.19993360340595245,-0.18644291162490845,-0.21552464365959167,-0.23558667302131653,-0.2840818166732788,-0.282973051071167,-0.22780802845954895,-0.24290350079536438,-0.28325095772743225,-0.27248677611351013,-0.2754475772380829,-0.22878508269786835,-0.3241000473499298,-0.18039320409297943,-0.30185946822166443,-0.32979434728622437,-0.31498926877975464,-0.3804561197757721,-0.34446606040000916,-0.3759916424751282,-0.3912207782268524,0.2084517776966095,0.0371568500995636,0.1523720920085907,0.10331428050994873,0.1598312109708786,0.20370467007160187,0.15695138275623322,0.21534597873687744,0.20157156884670258,-0.23686067759990692,-0.1830327957868576,-0.2510659992694855,-0.24557837843894958,-0.18098512291908264,-0.27294501662254333,-0.25244811177253723,-0.24719341099262238,-0.2863335609436035,0.21012382209300995,0.21476979553699493,0.23542888462543488,0.2576580047607422,0.23503977060317993,0.21962611377239227,0.20914728939533234,0.2138124406337738,0.2552974224090576,0.2810511589050293,0.22418159246444702,0.18536093831062317,0.26097890734672546,0.2558825612068176,0.21149563789367676,0.2494325339794159,0.2491452693939209,0.21879203617572784,-0.5432899594306946,-0.3015715777873993,0.006290041375905275,-0.3840568959712982,-0.21284806728363037,0.030229656025767326,0.08381904661655426,0.050155363976955414,0.09946543723344803,-0.22989746928215027,-0.34543371200561523,-0.3062610924243927,-0.2107478380203247,-0.2443319708108902,-0.24550168216228485,-0.2439069151878357,-0.19633153080940247,-0.2506709098815918,-0.09231413155794144,-0.0337081179022789,-0.015641195699572563,-0.10043930262327194,0.04214183986186981,-0.1744905710220337,-0.15352897346019745,-0.14068777859210968,-0.2365216612815857,-0.32638439536094666,-0.29075005650520325,-0.16823428869247437,-0.25050434470176697,-0.12498822063207626,-0.13977421820163727,-0.13684973120689392,-0.09266580641269684,-0.1899586319923401,0.014340036548674107,-0.2404613196849823,0.41988810896873474,0.05207810178399086,-0.16544856131076813,0.3110009431838989,0.3164792060852051,0.2522500157356262,0.31042537093162537,0.24602846801280975,0.2547059655189514,0.2569696307182312,0.2321787327528,0.20780472457408905,0.2098771333694458,0.21201953291893005,0.25002235174179077,0.23606611788272858,-0.06059381365776062,-0.31726986169815063,0.027449971064925194,0.11703263223171234,0.12345756590366364,0.20258237421512604,0.2070162296295166,0.24799521267414093,0.2635728716850281,0.1726231724023819,0.1440628618001938,0.14997245371341705,0.19003067910671234,0.20059794187545776,0.15446263551712036,0.25059762597084045,0.20770199596881866,0.17583979666233063,-0.3205887973308563,-0.4501122236251831,-0.3078240156173706,-0.24470263719558716,-0.2610973119735718,-0.24054363369941711,-0.23106656968593597,-0.22065316140651703,-0.1710689216852188,0.24480251967906952,0.18358244001865387,0.18303589522838593,0.20738455653190613,0.1745336502790451,0.20231696963310242,0.22522306442260742,0.2375527173280716,0.2454519122838974,-0.020930444821715355,-0.023365799337625504,-0.10393248498439789,-0.00416160561144352,-0.1122409924864769,0.029594166204333305,0.06322241574525833,0.057456061244010925,0.05253032222390175,-0.2056884616613388,0.002792168175801635,-0.11451728641986847,0.10079461336135864,-0.026779556646943092,-0.19694380462169647,-0.06786768138408661,-0.1660679280757904,-0.06066971272230148,0.2459351122379303,-0.6747515797615051,-0.2281617820262909,0.31823986768722534,0.1651771515607834,0.27451038360595703,0.22507049143314362,0.2570655047893524,0.23591165244579315,0.31463220715522766,-0.8092566728591919,-0.21017873287200928,0.3090261220932007,0.1540313959121704,0.3651633858680725,0.22077688574790955,0.22276851534843445,0.2700708508491516,-0.332783579826355,-0.12490253150463104,-0.2841333746910095,-0.3236415386199951,-0.3949609696865082,-0.39428073167800903,-0.4150018095970154,-0.3542644679546356,-0.33321648836135864,-0.20986951887607574,-0.2914639711380005,-0.26603811979293823,-0.21590037643909454,-0.1653062254190445,-0.11545441299676895,-0.12646344304084778,-0.11393613368272781,-0.16240565478801727,-0.2208023965358734,-0.2685519754886627,-0.23694464564323425,-0.22206522524356842,-0.21946460008621216,-0.2023298144340515,-0.21484176814556122,-0.2761691212654114,-0.22117085754871368,-0.301787793636322,-0.2407267689704895,-0.33046823740005493,-0.11565306782722473,-0.4625040590763092,0.03569937124848366,-0.3509063720703125,-0.10858678817749023,-0.24509060382843018,-0.2598118782043457,-0.1329030692577362,-0.36045974493026733,-0.17736487090587616,-0.4547361433506012,-0.1906958371400833,-0.32968461513519287,-0.32624682784080505,-0.2073241025209427,-0.24647657573223114,-0.07503625750541687,-0.18741536140441895,-0.20656226575374603,-0.460808128118515,-0.17858368158340454,-0.2579561769962311,-0.21077220141887665,-0.2657546103000641,0.10284480452537537,0.13839329779148102,0.07796300947666168,0.2613227069377899,0.23819786310195923,0.08117999136447906,0.05894893407821655,0.020442264154553413,0.3932463228702545,-0.3460196256637573,-0.15608607232570648,-0.23342294991016388,-0.16035206615924835,-0.428080677986145,-0.04597020149230957,0.0056336261332035065,-0.20167577266693115,-0.19137465953826904,0.1381564438343048,-0.023134473711252213,0.10303153097629547,0.15754634141921997,0.3644997775554657,0.032027717679739,0.16636277735233307,0.18307507038116455,0.15766499936580658,0.024170758202672005,0.1359415203332901,0.09770256280899048,0.05085447058081627,0.5823026299476624,0.11514288932085037,0.0372963547706604,0.16887037456035614,0.12499523162841797,0.02655990794301033,-0.12963639199733734,-0.10782119631767273,-0.04641486704349518,-0.2670115828514099,-0.3807530403137207,0.09699980169534683,0.11205986142158508,0.05789679288864136,-0.44380488991737366,-0.37759873270988464,-0.44111359119415283,-0.187457874417305,-0.4418409764766693,-0.08085556328296661,0.060823287814855576,-0.15389807522296906,-0.3445943295955658,0.10684474557638168,0.0997546911239624,0.044150736182928085,0.08537515252828598,0.17593877017498016,0.14275610446929932,0.02376699447631836,0.12281345576047897,0.14585739374160767,-0.13131587207317352,-0.2353724092245102,-0.11347568035125732,0.019859561696648598,-0.4178188443183899,-0.15604263544082642,-0.28285130858421326,-0.16328155994415283,0.010982685722410679,0.08372616767883301,0.12810392677783966,0.17438553273677826,0.19319717586040497,0.012319045141339302,0.3835252821445465,0.17471954226493835,0.1633213311433792,0.09719256311655045,0.15976502001285553,0.08075954020023346,0.12664996087551117,0.08815643936395645,0.5683776140213013,0.09139023721218109,0.13058792054653168,0.02759026736021042,0.2347429096698761,0.17013883590698242,0.12846606969833374,0.06650178134441376,0.15009251236915588,-0.18398405611515045,0.07703648507595062,0.21798086166381836,0.19912973046302795,0.13016672432422638,0.17011535167694092,0.08903782069683075,0.09011483937501907,0.13074658811092377,0.38993608951568604,0.2090953290462494,0.3042440116405487,0.22078898549079895,0.25408998131752014,-0.2557121515274048,-0.36088892817497253,-0.4779800474643707,-0.12955647706985474,-0.593052327632904,-0.044663794338703156,-0.13195666670799255,-0.2573745846748352,-0.42885613441467285,0.17094983160495758,0.23032739758491516,0.15720424056053162,0.17953060567378998,0.5923900604248047,0.13781292736530304,0.0626363456249237,0.11632082611322403,0.08338141441345215,0.019992848858237267,-0.006212517619132996,0.017235733568668365,-0.015367114916443825,-0.11768302321434021,-0.28470101952552795,-0.14094854891300201,-0.08198514580726624,-0.2269720435142517,-0.2431577444076538,0.0392504520714283,-0.26927244663238525,0.07592234015464783,-0.04539095610380173,-0.20771174132823944,0.05795727297663689,-0.028099697083234787,-0.29670825600624084,0.1275087147951126,-0.11351639777421951,0.08168844878673553,0.06711897999048233,0.33596956729888916,0.03432740643620491,0.15357732772827148,0.024985646829009056,0.0953969955444336,0.06937438249588013,0.03127826377749443,-0.05729635804891586,0.15148130059242249,0.282118558883667,-0.14193972945213318,0.2875204086303711,0.06487805396318436,-0.07016177475452423,-0.3671472668647766,-0.424682080745697,-0.3099364936351776,-0.3737388551235199,-0.3113901913166046,-0.17913207411766052,-0.2414545863866806,-0.04895300790667534,-0.06106903776526451,-0.21326743066310883,-0.053073398768901825,-0.07094353437423706,-0.21309924125671387,-0.46892833709716797,-0.27212095260620117,-0.2108440399169922,-0.03417301923036575,-0.12868215143680573,-0.10729032009840012,-0.06015963852405548,-0.09320398420095444,-0.06772524863481522,-0.4669826626777649,-0.15877927839756012,-0.2166098654270172,-0.11059709638357162,-0.1383029818534851,-0.12897472083568573,0.020614007487893105,-0.04377586022019386,-0.07749796658754349,0.43169188499450684,0.00568474130704999,-0.0835525244474411,-0.03338674083352089,-0.06876473873853683,-0.1643328219652176,-0.21814018487930298,-0.13887417316436768,-0.14637428522109985,0.4454863965511322,-0.22593650221824646,-0.17185799777507782,-0.062039751559495926,-0.11015284061431885,-0.2570419907569885,-0.21553972363471985,-0.16591450572013855,-0.29802170395851135,0.3462221622467041,-0.24984583258628845,-0.2058337777853012,-0.22547924518585205,-0.19400948286056519,0.11420408636331558,0.1774970442056656,0.11711191385984421,0.17073582112789154,-0.25406914949417114,0.07479484379291534,0.03470724821090698,0.141615092754364,0.19831305742263794,-0.30977848172187805,-0.23958827555179596,-0.18347500264644623,-0.13197514414787292,0.10277178883552551,-0.14582990109920502,-0.2791999280452728,-0.1306995451450348,0.07889124006032944,0.22976115345954895,0.23388703167438507,0.17020335793495178,0.20195750892162323,-0.2915744483470917,0.22857844829559326,0.17906177043914795,0.1958833634853363,0.1691785603761673,0.33895471692085266,0.219872385263443,0.18751563131809235,0.19089306890964508,-0.4049084484577179,0.1804610788822174,0.22150304913520813,0.322172075510025,0.2540147602558136,0.3560835123062134,0.4341084063053131,0.2498716115951538,0.17704759538173676,0.2723963260650635,0.3777753412723541,0.3319072425365448,0.43535473942756653,0.2863059341907501,-0.1076638400554657,-0.052922770380973816,-0.059912681579589844,-0.10367528349161148,0.32436418533325195,-0.13977397978305817,-0.10323768854141235,-0.05106494575738907,-0.08230213075876236,0.03999591991305351,0.1741144210100174,0.05814779922366142,0.03909366950392723,0.29356691241264343,0.2108188420534134,-0.09188194572925568,-0.0847252681851387,0.041832972317934036,-0.17722229659557343,-0.09508687257766724,-0.0032262378372251987,-0.1543000489473343,0.2729029655456543,-0.11426620930433273,-0.105387844145298,-0.024946555495262146,-0.0645425096154213,0.18716321885585785,0.22059057652950287,0.22173117101192474,0.25308993458747864,-0.4226404130458832,0.36367693543434143,0.24332748353481293,0.15660931169986725,0.25618210434913635,0.2005654126405716,0.21219588816165924,0.07244459539651871,0.3013803958892822,-0.20870135724544525,0.24548138678073883,0.1166820302605629,0.3217147886753082,0.25587743520736694,0.11971063166856766,0.20349997282028198,0.10841488838195801,0.23850975930690765,-0.25480717420578003,0.17725804448127747,0.10185927152633667,0.14807115495204926,0.04035462811589241,0.18333753943443298,0.23422497510910034,0.3379509449005127,0.25577735900878906,-0.21976883709430695,0.1887616366147995,0.18182483315467834,0.195717453956604,0.21716395020484924,-0.09819141775369644,-0.14952555298805237,-0.12543517351150513,-0.18290893733501434,0.3003229796886444,-0.06304319202899933,-0.06592997908592224,-0.17055219411849976,-0.1092994436621666,0.18182523548603058,0.18596453964710236,0.19077222049236298,0.22568336129188538,-0.04971802234649658,0.20506447553634644,0.15522733330726624,0.21238724887371063,0.19339187443256378,-0.5569892525672913,-0.6548789143562317,-0.3312194049358368,-0.8833267092704773,-1.383000135421753,-0.7093332409858704,-0.18226096034049988,-0.7738627195358276,-0.3320687711238861,0.05240611732006073,0.2644326388835907,0.14073368906974792,0.060911376029253006,0.3896612226963043,-0.05760098993778229,0.08135513961315155,0.18510310351848602,0.07555678486824036,0.16524000465869904,0.25392356514930725,0.26293516159057617,0.2775135934352875,-0.3147709369659424,0.2624967098236084,0.1160772368311882,0.2886129915714264,0.17723557353019714,0.1727723777294159,0.28812071681022644,0.1600363403558731,0.10782893002033234,-0.32770586013793945,0.2566552460193634,0.09517507255077362,0.27196142077445984,0.17913459241390228,-0.21282736957073212,0.05079987272620201,0.02292035147547722,-0.053332872688770294,0.4725240468978882,0.07918404042720795,0.025372667238116264,0.036446571350097656,-0.009748537093400955,-0.17691905796527863,-0.23169679939746857,-0.18276050686836243,-0.30983540415763855,0.15726077556610107,-0.1482342928647995,-0.21137940883636475,-0.15597443282604218,-0.25692394375801086,-0.1399737149477005,-0.27003660798072815,-0.18478678166866302,-0.2112782746553421,0.09903622418642044,-0.308952271938324,-0.26058000326156616,-0.24958613514900208,-0.21307837963104248,0.057441458106040955,-0.29989737272262573,-0.2971161901950836,0.005924999713897705,-0.24573791027069092,0.018390167504549026,0.16285206377506256,0.11189654469490051,0.12268362939357758,0.16169804334640503,-0.4063963294029236,-0.3963296413421631,0.1508944034576416,-0.23170574009418488,0.14882642030715942,0.19367648661136627,0.19682152569293976,0.2266923189163208,0.3325614631175995,-0.6497268080711365,-0.5786665081977844,0.3115255832672119,-0.3050138056278229,0.30493098497390747,0.306179016828537,0.3080294132232666,0.2964054048061371,-0.17415322363376617,0.2602023482322693,0.3736889362335205,-0.14741437137126923,0.15599581599235535,-0.05936463549733162,-0.20844882726669312,-0.11120175570249557,-0.21948370337486267,0.28336918354034424,-0.513325572013855,-0.5560486912727356,0.2609591484069824,-0.2510761022567749,0.14240460097789764,0.23306581377983093,0.179815411567688,0.1639091521501541,-0.1574675589799881,0.4207060933113098,0.3455958366394043,-0.2521734833717346,0.20861034095287323,-0.1431225687265396,-0.18449369072914124,-0.2796933650970459,-0.21207290887832642,-0.171047642827034,0.466183066368103,0.44762253761291504,-0.13341794908046722,0.216153085231781,-0.1744365096092224,-0.1586771309375763,-0.18630969524383545,-0.16021564602851868,0.11386813968420029,0.17768646776676178,0.25036606192588806,0.0023581748828291893,0.29671743512153625,0.09580804407596588,-0.05009140819311142,0.08304618299007416,-0.032398197799921036,0.07824555039405823,-0.36283189058303833,-0.31625527143478394,0.12105639278888702,-0.15674148499965668,0.12718547880649567,0.10489144176244736,0.1483425498008728,0.1780579537153244,0.2666817605495453,-0.3674396574497223,-0.4424217939376831,0.3282860219478607,-0.17291195690631866,0.24202516674995422,0.16662926971912384,0.281617671251297,0.3443848490715027,0.1078563928604126,-0.3331570327281952,-0.34621894359588623,0.05384095758199692,-0.16335457563400269,0.15995801985263824,0.06578247994184494,0.18896669149398804,0.16394422948360443,-0.08035187423229218,0.6007445454597473,0.48470959067344666,-0.10057231783866882,0.36820662021636963,-0.03562387079000473,-0.1844576746225357,-0.1974496692419052,-0.19596944749355316,-0.17088104784488678,0.416835755109787,0.40560299158096313,-0.10676483809947968,0.2723759412765503,-0.08573462069034576,-0.16284076869487762,-0.15436701476573944,-0.16176120936870575,-0.060493726283311844,0.4536809027194977,0.4241986870765686,-0.03446667641401291,0.3522811532020569,0.13206708431243896,-0.08048179745674133,-0.018626350909471512,-0.059723470360040665,-0.15618892014026642,0.3483865559101105,0.34431707859039307,-0.18572108447551727,0.18912425637245178,-0.18985840678215027,-0.1634441614151001,-0.14677418768405914,-0.07904727756977081,0.031515613198280334,-0.23198939859867096,-0.29869794845581055,0.08804916590452194,-0.20819155871868134,0.034513961523771286,0.1137746199965477,0.15546810626983643,0.15171706676483154,-0.11734936386346817,0.38642755150794983,0.3666340112686157,-0.10220492631196976,0.2907874882221222,-0.11127851158380508,-0.13338351249694824,-0.10559363663196564,-0.17828185856342316,0.053839001804590225,-0.00890117697417736,-0.03797663003206253,-0.23636116087436676,-0.3815969228744507,0.04893798381090164,-0.23555177450180054,-0.36735427379608154,-0.028220390900969505,-0.016068100929260254,-0.15077520906925201,-0.21314232051372528,0.14072561264038086,-0.1821357011795044,-0.08838648349046707,0.11080224812030792,0.016059551388025284,0.14419417083263397,-0.2478218823671341,0.3213438093662262,0.4076150357723236,-0.06805827468633652,0.2720930874347687,